{
  "name": "Zakamatnik",
  "isDead": false,
  "timeAlive": 11189,
  "children": 0,
  "isReadytoMultiply": false,
  "isAggresive": false,
  "brainThreshold": 20,
  "brainTick": 39,
  "attributes": {
    "brainSize": 12,
    "maxHP": 101.70096644546292,
    "regeneration": 0.03575650956031196,
    "attack": 83.6551402500686,
    "defense": 1.094688017244055,
    "brainSpeed": 48.85580898803547,
    "energyGain": 0.2961039234151131,
    "baseEnergy": 161.80007058133285,
    "lifespan": 133902.70185818535,
    "maxEnergy": 1499.082743747618,
    "speedMultiplier": 0.0009252375750387436,
    "moveDrain": 1603.0364551346552,
    "rotationMultiplier": 0.04714487147458454,
    "eyeSight": 0.5089987565201318,
    "multiplyAge": 432.84788655578365,
    "energyDrain": 0.013603686773764187,
    "fieldOfView": 3.141592653589793,
    "alertness": 4.868107365730564
  },
  "eyes": {
    "alertness": 4.868107365730564,
    "pixels": [
      {
        "positiveSignal": 0,
        "negativeSignal": 0,
        "neutralSignal": 0
      },
      {
        "positiveSignal": 0,
        "negativeSignal": 0,
        "neutralSignal": 0
      },
      {
        "positiveSignal": 0,
        "negativeSignal": 0,
        "neutralSignal": 0
      },
      {
        "positiveSignal": 0,
        "negativeSignal": 0,
        "neutralSignal": 0
      }
    ],
    "fov": 6.283185307179586
  },
  "brain": {
    "inputs": [0, 0, 0, 0, 0, 0, 0, 0, 0, 0, 0, 0],
    "hidden": [
      {
        "weights": [
          0.9008252894640858, 0.30339577874138535, 0.8376970096958353,
          0.39651178479581467, 0.1917474133218233, 0.5267665754386675,
          0.4472406020165103, 0.7582289413711932, 0.2600776931537112,
          0.618891074667116, 0.06476677712338844, 0.7795270272323457
        ],
        "bias": 0.2991839111246319,
        "value": 0.2994280517496319
      },
      {
        "weights": [
          0.8085864053048627, 0.734592646105827, 0.1373830397449429,
          0.5764521160244912, 0.4626719347173564, 0.45571046002674676,
          0.342948196905798, 0.6588999497547042, 0.37747832141231624,
          0.6551552792026266, 0.10231428122842726, 0.9612331403514235
        ],
        "bias": 0.3711454374390466,
        "value": 0.3713895780640466
      },
      {
        "weights": [
          0.7082226769936676, 0.018455116276851258, 0.8167614096415806,
          0.11354387278834348, 0.35496467576004986, 0.7020708278410872,
          0.1754418765385008, 0.5043679731652119, 0.24909305504952822,
          0.12239330319395528, 0.3597304407462574, 0.4282315942853483
        ],
        "bias": 0.06450951842506415,
        "value": 0.06475365905006415
      },
      {
        "weights": [
          0.6436904793824019, 0.3815091493474272, 0.8182026712314436,
          0.011661329418178502, 0.2855864710216577, 0.46679209683281087,
          0.5941450058506225, 0, 0.5944501222552292, 0.22613357684431556,
          0.6853037678934681, 0.4829531511572492
        ],
        "bias": 0.3554551414233464,
        "value": 0.3556992820483464
      },
      {
        "weights": [
          0.4369958409065496, 0.5324495166935683, 0.00009974037970108575,
          0.6482561285339224, 0.9254877474825908, 0.10177680499555454,
          0.19299432032232922, 0.8225792390296836, 0.46330399905263975,
          0.8304572843404223, 0.08676896963676423, 0.8247845536793833
        ],
        "bias": 0.29939531407418735,
        "value": 0.29963945469918735
      },
      {
        "weights": [
          0.4746555953501122, 0.5275491477281591, 0.7996020866482876,
          0.9813375848403532, 0.15688678829333275, 0.14631345031888152,
          0.10319899860623291, 0.4716562572436381, 0.8264095624553807,
          0.12192280957941493, 0.4835298825167829, 0.6398771050338005
        ],
        "bias": 0.09428439497010102,
        "value": 0.09452853559510102
      },
      {
        "weights": [
          0.26418724656500353, 0.793236523387556, 0.7792014483410268,
          0.9645458145466957, 0.364836578639156, 0.2430085989262249,
          0.3212993675156029, 0.06670888893500682, 0.22218010799027782,
          0.6241660164794193, 0.34762476754700383, 0.8541069152764895
        ],
        "bias": 0.06409837270653236,
        "value": 0.06434251333153236
      },
      {
        "weights": [
          0.27689326561333544, 0.5706129814213498, 0.5537915476669165,
          0.7710371163712622, 0.3182732430508149, 0.7813213083074402,
          0.24364500450106394, 0.8136660817513404, 0.527590873509234,
          0.9684188805573408, 0.8876454039932349, 0.2751869668482062
        ],
        "bias": 0.1239549854366255,
        "value": 0.1241991260616255
      },
      {
        "weights": [
          0.6454887145423617, 0.37898948296520685, 0.8923264670552525,
          0.8737511908862755, 0.38340972922892114, 0.374956999306171, 1,
          0.4664284064256251, 0.5365671389231315, 0.9859917094244175,
          0.8004818330627146, 0.0032739902229496744
        ],
        "bias": 0.37761996476239357,
        "value": 0.37786410538739357
      },
      {
        "weights": [
          0.4270181376662017, 0.013397466384776568, 0.9794852321472977,
          0.6166653942277517, 0.8474716080953725, 0.8482102261761065,
          0.058401480287398444, 0.5861248911659052, 0.440028252497365,
          0.2857960059008829, 0.1636310303074346, 0.820161564177055
        ],
        "bias": 0.2180846799710945,
        "value": 0.2183288205960945
      },
      {
        "weights": [
          0.257944167711467, 0.7861904273889402, 0.6111666620890471,
          0.31837628007324925, 0.9312745692102578, 0.5336887056659295,
          0.22623936846324366, 0.2724293940442524, 0.38885223730211466,
          0.7554951856189519, 0.31659798172455594, 0.452004623547367
        ],
        "bias": 0.035216338978724296,
        "value": 0.035460479603724296
      },
      {
        "weights": [
          0.4483527504233494, 0.5161711607440674, 0.7755228736954638,
          0.4640274578907242, 0.89517045812388, 0.1268372474434915,
          0.982417583353398, 0.36937739896856964, 0.31006059070831243,
          0.7010565811687521, 0.9819809473922336, 0.21429902070356693
        ],
        "bias": 0.3499492546740885,
        "value": 0.3501933952990885
      }
    ],
    "outputs": [
      {
        "weights": [
          0.3841392567441593, 0.09444173528940908, 0.8098937520848983,
          0.22341681801341945, 0.5202329229074157, 0.790853646807944,
          0.49893150963681704, 0.9314127536775807, 0.12117847994098299,
          0.6808913068348503, 0.14935927856645934, 0.5499237163503019
        ],
        "bias": 0.262717221665057,
        "value": 0.2631238889875556
      },
      {
        "weights": [
          0.5530153841114734, 0.32435901217654123, 0.3539966900727754,
          0.2973681871184674, 0.6571295084592004, 0.7269313762699812,
          0.21976205149977798, 0.30059870863630406, 0.3246810632150257,
          0.49991569882521897, 0.6846281189437853, 0.8936710839616903
        ],
        "bias": 0.36014446149066065,
        "value": 0.3605994327637892
      },
      {
        "weights": [
          0.8701962553105786, 0.8433643778526135, 0.21574911344752234,
          0.7065151313757417, 0.707476448624025, 0.6054766423827809,
          0.2138997266716451, 0.5145132962647051, 0.2430843776580207,
          0.16611246944400163, 0.563596560582647, 0.35950762590233726
        ],
        "bias": 0.440213892646446,
        "value": 0.4407014189923543
      }
    ]
  },
  "type": "B",
  "geometry": {
    "metadata": {
      "version": 4.5,
      "type": "BufferGeometry",
      "generator": "BufferGeometry.toJSON"
    },
    "uuid": "a5dcae0a-69b8-4f5d-b170-314e21f65703",
    "type": "BufferGeometry",
    "data": {
      "attributes": {
        "position": {
          "itemSize": 3,
          "type": "Float32Array",
          "array": [
            0, -0.24758221209049225, -2.0703544910620357e-17, 0,
            -0.24541661143302917, 0.02198762446641922, 0, -0.23900306224822998,
            0.04313027858734131, 0, -0.2285880148410797, 0.06261546164751053, 0,
            -0.2145717293024063, 0.07969436049461365, 0, -0.1974928230047226,
            0.09371065348386765, 0, -0.17800763249397278, 0.10412570089101791,
            0, -0.1568649858236313, 0.1105392575263977, 0, -0.13487736880779266,
            0.11270484328269958, 0, 0.13487736880779266, 0.11270484328269958, 0,
            0.1568649858236313, 0.1105392575263977, 0, 0.17800763249397278,
            0.10412570089101791, 0, 0.1974928230047226, 0.09371065348386765, 0,
            0.2145717293024063, 0.07969436049461365, 0, 0.2285880148410797,
            0.06261546164751053, 0, 0.23900306224822998, 0.04313027858734131, 0,
            0.24541661143302917, 0.02198762446641922, 0, 0.24758221209049225,
            6.901181499010017e-18, -1.463961618889212e-17, -0.24758221209049225,
            -1.463961618889212e-17, 0.015547598712146282, -0.24541661143302917,
            0.015547598712146282, 0.030497711151838303, -0.23900306224822998,
            0.030497711151838303, 0.04427581652998924, -0.2285880148410797,
            0.04427581652998924, 0.05635242164134979, -0.2145717293024063,
            0.05635242164134979, 0.06626343727111816, -0.1974928230047226,
            0.06626343727111816, 0.07362798601388931, -0.17800763249397278,
            0.07362798601388931, 0.07816305756568909, -0.1568649858236313,
            0.07816305756568909, 0.07969436049461365, -0.13487736880779266,
            0.07969436049461365, 0.07969436049461365, 0.13487736880779266,
            0.07969436049461365, 0.07816305756568909, 0.1568649858236313,
            0.07816305756568909, 0.07362798601388931, 0.17800763249397278,
            0.07362798601388931, 0.06626343727111816, 0.1974928230047226,
            0.06626343727111816, 0.05635242164134979, 0.2145717293024063,
            0.05635242164134979, 0.04427581652998924, 0.2285880148410797,
            0.04427581652998924, 0.030497711151838303, 0.23900306224822998,
            0.030497711151838303, 0.015547598712146282, 0.24541661143302917,
            0.015547598712146282, 4.8798722008274754e-18, 0.24758221209049225,
            4.8798722008274754e-18, -2.0703544910620357e-17,
            -0.24758221209049225, -1.267726484488185e-33, 0.02198762446641922,
            -0.24541661143302917, 1.346353699781882e-18, 0.04313027858734131,
            -0.23900306224822998, 2.6409678726340314e-18, 0.06261546164751053,
            -0.2285880148410797, 3.834090913433834e-18, 0.07969436049461365,
            -0.2145717293024063, 4.8798722008274754e-18, 0.09371065348386765,
            -0.1974928230047226, 5.738122544368607e-18, 0.10412570089101791,
            -0.17800763249397278, 6.375860185083209e-18, 0.1105392575263977,
            -0.1568649858236313, 6.76857741578256e-18, 0.11270484328269958,
            -0.13487736880779266, 6.901181499010017e-18, 0.11270484328269958,
            0.13487736880779266, 6.901181499010017e-18, 0.1105392575263977,
            0.1568649858236313, 6.76857741578256e-18, 0.10412570089101791,
            0.17800763249397278, 6.375860185083209e-18, 0.09371065348386765,
            0.1974928230047226, 5.738122544368607e-18, 0.07969436049461365,
            0.2145717293024063, 4.8798722008274754e-18, 0.06261546164751053,
            0.2285880148410797, 3.834090913433834e-18, 0.04313027858734131,
            0.23900306224822998, 2.6409678726340314e-18, 0.02198762446641922,
            0.24541661143302917, 1.346353699781882e-18, 6.901181499010017e-18,
            0.24758221209049225, 4.22575479523479e-34, -1.463961618889212e-17,
            -0.24758221209049225, 1.463961618889212e-17, 0.015547598712146282,
            -0.24541661143302917, -0.015547598712146282, 0.030497711151838303,
            -0.23900306224822998, -0.030497711151838303, 0.04427581652998924,
            -0.2285880148410797, -0.04427581652998924, 0.05635242164134979,
            -0.2145717293024063, -0.05635242164134979, 0.06626343727111816,
            -0.1974928230047226, -0.06626343727111816, 0.07362798601388931,
            -0.17800763249397278, -0.07362798601388931, 0.07816305756568909,
            -0.1568649858236313, -0.07816305756568909, 0.07969436049461365,
            -0.13487736880779266, -0.07969436049461365, 0.07969436049461365,
            0.13487736880779266, -0.07969436049461365, 0.07816305756568909,
            0.1568649858236313, -0.07816305756568909, 0.07362798601388931,
            0.17800763249397278, -0.07362798601388931, 0.06626343727111816,
            0.1974928230047226, -0.06626343727111816, 0.05635242164134979,
            0.2145717293024063, -0.05635242164134979, 0.04427581652998924,
            0.2285880148410797, -0.04427581652998924, 0.030497711151838303,
            0.23900306224822998, -0.030497711151838303, 0.015547598712146282,
            0.24541661143302917, -0.015547598712146282, 4.8798722008274754e-18,
            0.24758221209049225, -4.8798722008274754e-18, -2.53545296897637e-33,
            -0.24758221209049225, 2.0703544910620357e-17, 2.692707399563764e-18,
            -0.24541661143302917, -0.02198762446641922, 5.281935745268063e-18,
            -0.23900306224822998, -0.04313027858734131, 7.668181826867668e-18,
            -0.2285880148410797, -0.06261546164751053, 9.759744401654951e-18,
            -0.2145717293024063, -0.07969436049461365, 1.1476245088737215e-17,
            -0.1974928230047226, -0.09371065348386765, 1.2751720370166418e-17,
            -0.17800763249397278, -0.10412570089101791, 1.353715483156512e-17,
            -0.1568649858236313, -0.1105392575263977, 1.3802362998020034e-17,
            -0.13487736880779266, -0.11270484328269958, 1.3802362998020034e-17,
            0.13487736880779266, -0.11270484328269958, 1.353715483156512e-17,
            0.1568649858236313, -0.1105392575263977, 1.2751720370166418e-17,
            0.17800763249397278, -0.10412570089101791, 1.1476245088737215e-17,
            0.1974928230047226, -0.09371065348386765, 9.759744401654951e-18,
            0.2145717293024063, -0.07969436049461365, 7.668181826867668e-18,
            0.2285880148410797, -0.06261546164751053, 5.281935745268063e-18,
            0.23900306224822998, -0.04313027858734131, 2.692707399563764e-18,
            0.24541661143302917, -0.02198762446641922, 8.45150959046958e-34,
            0.24758221209049225, -6.901181499010017e-18, 1.463961618889212e-17,
            -0.24758221209049225, 1.463961618889212e-17, -0.015547598712146282,
            -0.24541661143302917, -0.015547598712146282, -0.030497711151838303,
            -0.23900306224822998, -0.030497711151838303, -0.04427581652998924,
            -0.2285880148410797, -0.04427581652998924, -0.05635242164134979,
            -0.2145717293024063, -0.05635242164134979, -0.06626343727111816,
            -0.1974928230047226, -0.06626343727111816, -0.07362798601388931,
            -0.17800763249397278, -0.07362798601388931, -0.07816305756568909,
            -0.1568649858236313, -0.07816305756568909, -0.07969436049461365,
            -0.13487736880779266, -0.07969436049461365, -0.07969436049461365,
            0.13487736880779266, -0.07969436049461365, -0.07816305756568909,
            0.1568649858236313, -0.07816305756568909, -0.07362798601388931,
            0.17800763249397278, -0.07362798601388931, -0.06626343727111816,
            0.1974928230047226, -0.06626343727111816, -0.05635242164134979,
            0.2145717293024063, -0.05635242164134979, -0.04427581652998924,
            0.2285880148410797, -0.04427581652998924, -0.030497711151838303,
            0.23900306224822998, -0.030497711151838303, -0.015547598712146282,
            0.24541661143302917, -0.015547598712146282, -4.8798722008274754e-18,
            0.24758221209049225, -4.8798722008274754e-18,
            2.0703544910620357e-17, -0.24758221209049225, 3.803179361629059e-33,
            -0.02198762446641922, -0.24541661143302917, -4.039061306140799e-18,
            -0.04313027858734131, -0.23900306224822998, -7.922903824697247e-18,
            -0.06261546164751053, -0.2285880148410797, -1.1502273153891808e-17,
            -0.07969436049461365, -0.2145717293024063, -1.463961618889212e-17,
            -0.09371065348386765, -0.1974928230047226, -1.7214368046696128e-17,
            -0.10412570089101791, -0.17800763249397278, -1.9127580555249628e-17,
            -0.1105392575263977, -0.1568649858236313, -2.030573224734768e-17,
            -0.11270484328269958, -0.13487736880779266, -2.0703544910620357e-17,
            -0.11270484328269958, 0.13487736880779266, -2.0703544910620357e-17,
            -0.1105392575263977, 0.1568649858236313, -2.030573224734768e-17,
            -0.10412570089101791, 0.17800763249397278, -1.9127580555249628e-17,
            -0.09371065348386765, 0.1974928230047226, -1.7214368046696128e-17,
            -0.07969436049461365, 0.2145717293024063, -1.463961618889212e-17,
            -0.06261546164751053, 0.2285880148410797, -1.1502273153891808e-17,
            -0.04313027858734131, 0.23900306224822998, -7.922903824697247e-18,
            -0.02198762446641922, 0.24541661143302917, -4.039061306140799e-18,
            -6.901181499010017e-18, 0.24758221209049225, -1.267726484488185e-33,
            1.463961618889212e-17, -0.24758221209049225, -1.463961618889212e-17,
            -0.015547598712146282, -0.24541661143302917, 0.015547598712146282,
            -0.030497711151838303, -0.23900306224822998, 0.030497711151838303,
            -0.04427581652998924, -0.2285880148410797, 0.04427581652998924,
            -0.05635242164134979, -0.2145717293024063, 0.05635242164134979,
            -0.06626343727111816, -0.1974928230047226, 0.06626343727111816,
            -0.07362798601388931, -0.17800763249397278, 0.07362798601388931,
            -0.07816305756568909, -0.1568649858236313, 0.07816305756568909,
            -0.07969436049461365, -0.13487736880779266, 0.07969436049461365,
            -0.07969436049461365, 0.13487736880779266, 0.07969436049461365,
            -0.07816305756568909, 0.1568649858236313, 0.07816305756568909,
            -0.07362798601388931, 0.17800763249397278, 0.07362798601388931,
            -0.06626343727111816, 0.1974928230047226, 0.06626343727111816,
            -0.05635242164134979, 0.2145717293024063, 0.05635242164134979,
            -0.04427581652998924, 0.2285880148410797, 0.04427581652998924,
            -0.030497711151838303, 0.23900306224822998, 0.030497711151838303,
            -0.015547598712146282, 0.24541661143302917, 0.015547598712146282,
            -4.8798722008274754e-18, 0.24758221209049225,
            4.8798722008274754e-18, 5.07090593795274e-33, -0.24758221209049225,
            -2.0703544910620357e-17, -5.385414799127528e-18,
            -0.24541661143302917, 0.02198762446641922, -1.0563871490536126e-17,
            -0.23900306224822998, 0.04313027858734131, -1.5336363653735336e-17,
            -0.2285880148410797, 0.06261546164751053, -1.9519488803309902e-17,
            -0.2145717293024063, 0.07969436049461365, -2.295249017747443e-17,
            -0.1974928230047226, 0.09371065348386765, -2.5503440740332837e-17,
            -0.17800763249397278, 0.10412570089101791, -2.707430966313024e-17,
            -0.1568649858236313, 0.1105392575263977, -2.7604725996040068e-17,
            -0.13487736880779266, 0.11270484328269958, -2.7604725996040068e-17,
            0.13487736880779266, 0.11270484328269958, -2.707430966313024e-17,
            0.1568649858236313, 0.1105392575263977, -2.5503440740332837e-17,
            0.17800763249397278, 0.10412570089101791, -2.295249017747443e-17,
            0.1974928230047226, 0.09371065348386765, -1.9519488803309902e-17,
            0.2145717293024063, 0.07969436049461365, -1.5336363653735336e-17,
            0.2285880148410797, 0.06261546164751053, -1.0563871490536126e-17,
            0.23900306224822998, 0.04313027858734131, -5.385414799127528e-18,
            0.24541661143302917, 0.02198762446641922, -1.690301918093916e-33,
            0.24758221209049225, 6.901181499010017e-18, 0, -0.19182758033275604,
            -3.3736902081387606e-17, 0, -0.18829868733882904,
            0.0358293391764164, 0, -0.17784766852855682, 0.07028178125619888, 0,
            -0.1608761101961136, 0.102033331990242, 0, -0.13803623616695404,
            0.12986379861831665, 0, -0.1102057620882988, 0.1527036726474762, 0,
            -0.07845420390367508, 0.16967523097991943, 0, -0.04400176554918289,
            0.18012626469135284, 0, -0.008172431029379368, 0.18365514278411865,
            0, 0.17548270523548126, 0.18365514278411865, 0, 0.21131204068660736,
            0.18012626469135284, 0, 0.24576447904109955, 0.16967523097991943, 0,
            0.27751603722572327, 0.1527036726474762, 0, 0.3053465187549591,
            0.12986379861831665, 0, 0.32818639278411865, 0.102033331990242, 0,
            0.3451579511165619, 0.07028178125619888, 0, 0.3556089699268341,
            0.0358293391764164, 0, 0.3591378629207611, 1.1245633751402331e-17,
            -2.3855592735370024e-17, -0.19182758033275604,
            -2.3855592735370024e-17, 0.025335170328617096, -0.18829868733882904,
            0.025335170328617096, 0.04969672113656998, -0.17784766852855682,
            0.04969672113656998, 0.07214845716953278, -0.1608761101961136,
            0.07214845716953278, 0.09182757139205933, -0.13803623616695404,
            0.09182757139205933, 0.10797780007123947, -0.1102057620882988,
            0.10797780007123947, 0.11997850239276886, -0.07845420390367508,
            0.11997850239276886, 0.1273684948682785, -0.04400176554918289,
            0.1273684948682785, 0.12986379861831665, -0.008172431029379368,
            0.12986379861831665, 0.12986379861831665, 0.17548270523548126,
            0.12986379861831665, 0.1273684948682785, 0.21131204068660736,
            0.1273684948682785, 0.11997850239276886, 0.24576447904109955,
            0.11997850239276886, 0.10797780007123947, 0.27751603722572327,
            0.10797780007123947, 0.09182757139205933, 0.3053465187549591,
            0.09182757139205933, 0.07214845716953278, 0.32818639278411865,
            0.07214845716953278, 0.04969672113656998, 0.3451579511165619,
            0.04969672113656998, 0.025335170328617096, 0.3556089699268341,
            0.025335170328617096, 7.951864245123341e-18, 0.3591378629207611,
            7.951864245123341e-18, -3.3736902081387606e-17,
            -0.19182758033275604, -2.0657895275641024e-33, 0.0358293391764164,
            -0.18829868733882904, 2.193914388266991e-18, 0.07028178125619888,
            -0.17784766852855682, 4.3035179790092086e-18, 0.102033331990242,
            -0.1608761101961136, 6.24773942077579e-18, 0.12986379861831665,
            -0.13803623616695404, 7.951864245123341e-18, 0.1527036726474762,
            -0.1102057620882988, 9.350403322185122e-18, 0.16967523097991943,
            -0.07845420390367508, 1.0389611005250804e-17, 0.18012626469135284,
            -0.04400176554918289, 1.1029552668707554e-17, 0.18365514278411865,
            -0.008172431029379368, 1.1245633751402331e-17, 0.18365514278411865,
            0.17548270523548126, 1.1245633751402331e-17, 0.18012626469135284,
            0.21131204068660736, 1.1029552668707554e-17, 0.16967523097991943,
            0.24576447904109955, 1.0389611005250804e-17, 0.1527036726474762,
            0.27751603722572327, 9.350403322185122e-18, 0.12986379861831665,
            0.3053465187549591, 7.951864245123341e-18, 0.102033331990242,
            0.32818639278411865, 6.24773942077579e-18, 0.07028178125619888,
            0.3451579511165619, 4.3035179790092086e-18, 0.0358293391764164,
            0.3556089699268341, 2.193914388266991e-18, 1.1245633751402331e-17,
            0.3591378629207611, 6.88596463270286e-34, -2.3855592735370024e-17,
            -0.19182758033275604, 2.3855592735370024e-17, 0.025335170328617096,
            -0.18829868733882904, -0.025335170328617096, 0.04969672113656998,
            -0.17784766852855682, -0.04969672113656998, 0.07214845716953278,
            -0.1608761101961136, -0.07214845716953278, 0.09182757139205933,
            -0.13803623616695404, -0.09182757139205933, 0.10797780007123947,
            -0.1102057620882988, -0.10797780007123947, 0.11997850239276886,
            -0.07845420390367508, -0.11997850239276886, 0.1273684948682785,
            -0.04400176554918289, -0.1273684948682785, 0.12986379861831665,
            -0.008172431029379368, -0.12986379861831665, 0.12986379861831665,
            0.17548270523548126, -0.12986379861831665, 0.1273684948682785,
            0.21131204068660736, -0.1273684948682785, 0.11997850239276886,
            0.24576447904109955, -0.11997850239276886, 0.10797780007123947,
            0.27751603722572327, -0.10797780007123947, 0.09182757139205933,
            0.3053465187549591, -0.09182757139205933, 0.07214845716953278,
            0.32818639278411865, -0.07214845716953278, 0.04969672113656998,
            0.3451579511165619, -0.04969672113656998, 0.025335170328617096,
            0.3556089699268341, -0.025335170328617096, 7.951864245123341e-18,
            0.3591378629207611, -7.951864245123341e-18, -4.131579055128205e-33,
            -0.19182758033275604, 3.3736902081387606e-17, 4.387828776533982e-18,
            -0.18829868733882904, -0.0358293391764164, 8.607035958018417e-18,
            -0.17784766852855682, -0.07028178125619888, 1.249547884155158e-17,
            -0.1608761101961136, -0.102033331990242, 1.5903728490246683e-17,
            -0.13803623616695404, -0.12986379861831665, 1.8700806644370244e-17,
            -0.1102057620882988, -0.1527036726474762, 2.077922201050161e-17,
            -0.07845420390367508, -0.16967523097991943, 2.2059105337415108e-17,
            -0.04400176554918289, -0.18012626469135284, 2.2491267502804662e-17,
            -0.008172431029379368, -0.18365514278411865, 2.2491267502804662e-17,
            0.17548270523548126, -0.18365514278411865, 2.2059105337415108e-17,
            0.21131204068660736, -0.18012626469135284, 2.077922201050161e-17,
            0.24576447904109955, -0.16967523097991943, 1.8700806644370244e-17,
            0.27751603722572327, -0.1527036726474762, 1.5903728490246683e-17,
            0.3053465187549591, -0.12986379861831665, 1.249547884155158e-17,
            0.32818639278411865, -0.102033331990242, 8.607035958018417e-18,
            0.3451579511165619, -0.07028178125619888, 4.387828776533982e-18,
            0.3556089699268341, -0.0358293391764164, 1.377192926540572e-33,
            0.3591378629207611, -1.1245633751402331e-17, 2.3855592735370024e-17,
            -0.19182758033275604, 2.3855592735370024e-17, -0.025335170328617096,
            -0.18829868733882904, -0.025335170328617096, -0.04969672113656998,
            -0.17784766852855682, -0.04969672113656998, -0.07214845716953278,
            -0.1608761101961136, -0.07214845716953278, -0.09182757139205933,
            -0.13803623616695404, -0.09182757139205933, -0.10797780007123947,
            -0.1102057620882988, -0.10797780007123947, -0.11997850239276886,
            -0.07845420390367508, -0.11997850239276886, -0.1273684948682785,
            -0.04400176554918289, -0.1273684948682785, -0.12986379861831665,
            -0.008172431029379368, -0.12986379861831665, -0.12986379861831665,
            0.17548270523548126, -0.12986379861831665, -0.1273684948682785,
            0.21131204068660736, -0.1273684948682785, -0.11997850239276886,
            0.24576447904109955, -0.11997850239276886, -0.10797780007123947,
            0.27751603722572327, -0.10797780007123947, -0.09182757139205933,
            0.3053465187549591, -0.09182757139205933, -0.07214845716953278,
            0.32818639278411865, -0.07214845716953278, -0.04969672113656998,
            0.3451579511165619, -0.04969672113656998, -0.025335170328617096,
            0.3556089699268341, -0.025335170328617096, -7.951864245123341e-18,
            0.3591378629207611, -7.951864245123341e-18, 3.3736902081387606e-17,
            -0.19182758033275604, 6.197368582692307e-33, -0.0358293391764164,
            -0.18829868733882904, -6.58174295800582e-18, -0.07028178125619888,
            -0.17784766852855682, -1.2910553109847013e-17, -0.102033331990242,
            -0.1608761101961136, -1.8743217848737063e-17, -0.12986379861831665,
            -0.13803623616695404, -2.3855592735370024e-17, -0.1527036726474762,
            -0.1102057620882988, -2.8051209966555366e-17, -0.16967523097991943,
            -0.07845420390367508, -3.1168833842933026e-17, -0.18012626469135284,
            -0.04400176554918289, -3.308865717894205e-17, -0.18365514278411865,
            -0.008172431029379368, -3.3736902081387606e-17,
            -0.18365514278411865, 0.17548270523548126, -3.3736902081387606e-17,
            -0.18012626469135284, 0.21131204068660736, -3.308865717894205e-17,
            -0.16967523097991943, 0.24576447904109955, -3.1168833842933026e-17,
            -0.1527036726474762, 0.27751603722572327, -2.8051209966555366e-17,
            -0.12986379861831665, 0.3053465187549591, -2.3855592735370024e-17,
            -0.102033331990242, 0.32818639278411865, -1.8743217848737063e-17,
            -0.07028178125619888, 0.3451579511165619, -1.2910553109847013e-17,
            -0.0358293391764164, 0.3556089699268341, -6.58174295800582e-18,
            -1.1245633751402331e-17, 0.3591378629207611,
            -2.0657895275641024e-33, 2.3855592735370024e-17,
            -0.19182758033275604, -2.3855592735370024e-17,
            -0.025335170328617096, -0.18829868733882904, 0.025335170328617096,
            -0.04969672113656998, -0.17784766852855682, 0.04969672113656998,
            -0.07214845716953278, -0.1608761101961136, 0.07214845716953278,
            -0.09182757139205933, -0.13803623616695404, 0.09182757139205933,
            -0.10797780007123947, -0.1102057620882988, 0.10797780007123947,
            -0.11997850239276886, -0.07845420390367508, 0.11997850239276886,
            -0.1273684948682785, -0.04400176554918289, 0.1273684948682785,
            -0.12986379861831665, -0.008172431029379368, 0.12986379861831665,
            -0.12986379861831665, 0.17548270523548126, 0.12986379861831665,
            -0.1273684948682785, 0.21131204068660736, 0.1273684948682785,
            -0.11997850239276886, 0.24576447904109955, 0.11997850239276886,
            -0.10797780007123947, 0.27751603722572327, 0.10797780007123947,
            -0.09182757139205933, 0.3053465187549591, 0.09182757139205933,
            -0.07214845716953278, 0.32818639278411865, 0.07214845716953278,
            -0.04969672113656998, 0.3451579511165619, 0.04969672113656998,
            -0.025335170328617096, 0.3556089699268341, 0.025335170328617096,
            -7.951864245123341e-18, 0.3591378629207611, 7.951864245123341e-18,
            8.26315811025641e-33, -0.19182758033275604, -3.3736902081387606e-17,
            -8.775657553067964e-18, -0.18829868733882904, 0.0358293391764164,
            -1.7214071916036834e-17, -0.17784766852855682, 0.07028178125619888,
            -2.499095768310316e-17, -0.1608761101961136, 0.102033331990242,
            -3.1807456980493366e-17, -0.13803623616695404, 0.12986379861831665,
            -3.740161328874049e-17, -0.1102057620882988, 0.1527036726474762,
            -4.155844402100322e-17, -0.07845420390367508, 0.16967523097991943,
            -4.4118210674830215e-17, -0.04400176554918289, 0.18012626469135284,
            -4.4982535005609324e-17, -0.008172431029379368, 0.18365514278411865,
            -4.4982535005609324e-17, 0.17548270523548126, 0.18365514278411865,
            -4.4118210674830215e-17, 0.21131204068660736, 0.18012626469135284,
            -4.155844402100322e-17, 0.24576447904109955, 0.16967523097991943,
            -3.740161328874049e-17, 0.27751603722572327, 0.1527036726474762,
            -3.1807456980493366e-17, 0.3053465187549591, 0.12986379861831665,
            -2.499095768310316e-17, 0.32818639278411865, 0.102033331990242,
            -1.7214071916036834e-17, 0.3451579511165619, 0.07028178125619888,
            -8.775657553067964e-18, 0.3556089699268341, 0.0358293391764164,
            -2.754385853081144e-33, 0.3591378629207611, 1.1245633751402331e-17
          ],
          "normalized": false
        },
        "uv": {
          "itemSize": 2,
          "type": "Float32Array",
          "array": [
            0, 0, 0, 0.05882352963089943, 0, 0.11764705926179886, 0,
            0.1764705926179886, 0, 0.23529411852359772, 0, 0.29411765933036804,
            0, 0.3529411852359772, 0, 0.4117647111415863, 0,
            0.47058823704719543, 0, 0.529411792755127, 0, 0.5882353186607361, 0,
            0.6470588445663452, 0, 0.7058823704719543, 0, 0.7647058963775635, 0,
            0.8235294222831726, 0, 0.8823529481887817, 0, 0.9411764740943909, 0,
            1, 0.125, 0, 0.125, 0.05882352963089943, 0.125, 0.11764705926179886,
            0.125, 0.1764705926179886, 0.125, 0.23529411852359772, 0.125,
            0.29411765933036804, 0.125, 0.3529411852359772, 0.125,
            0.4117647111415863, 0.125, 0.47058823704719543, 0.125,
            0.529411792755127, 0.125, 0.5882353186607361, 0.125,
            0.6470588445663452, 0.125, 0.7058823704719543, 0.125,
            0.7647058963775635, 0.125, 0.8235294222831726, 0.125,
            0.8823529481887817, 0.125, 0.9411764740943909, 0.125, 1, 0.25, 0,
            0.25, 0.05882352963089943, 0.25, 0.11764705926179886, 0.25,
            0.1764705926179886, 0.25, 0.23529411852359772, 0.25,
            0.29411765933036804, 0.25, 0.3529411852359772, 0.25,
            0.4117647111415863, 0.25, 0.47058823704719543, 0.25,
            0.529411792755127, 0.25, 0.5882353186607361, 0.25,
            0.6470588445663452, 0.25, 0.7058823704719543, 0.25,
            0.7647058963775635, 0.25, 0.8235294222831726, 0.25,
            0.8823529481887817, 0.25, 0.9411764740943909, 0.25, 1, 0.375, 0,
            0.375, 0.05882352963089943, 0.375, 0.11764705926179886, 0.375,
            0.1764705926179886, 0.375, 0.23529411852359772, 0.375,
            0.29411765933036804, 0.375, 0.3529411852359772, 0.375,
            0.4117647111415863, 0.375, 0.47058823704719543, 0.375,
            0.529411792755127, 0.375, 0.5882353186607361, 0.375,
            0.6470588445663452, 0.375, 0.7058823704719543, 0.375,
            0.7647058963775635, 0.375, 0.8235294222831726, 0.375,
            0.8823529481887817, 0.375, 0.9411764740943909, 0.375, 1, 0.5, 0,
            0.5, 0.05882352963089943, 0.5, 0.11764705926179886, 0.5,
            0.1764705926179886, 0.5, 0.23529411852359772, 0.5,
            0.29411765933036804, 0.5, 0.3529411852359772, 0.5,
            0.4117647111415863, 0.5, 0.47058823704719543, 0.5,
            0.529411792755127, 0.5, 0.5882353186607361, 0.5, 0.6470588445663452,
            0.5, 0.7058823704719543, 0.5, 0.7647058963775635, 0.5,
            0.8235294222831726, 0.5, 0.8823529481887817, 0.5,
            0.9411764740943909, 0.5, 1, 0.625, 0, 0.625, 0.05882352963089943,
            0.625, 0.11764705926179886, 0.625, 0.1764705926179886, 0.625,
            0.23529411852359772, 0.625, 0.29411765933036804, 0.625,
            0.3529411852359772, 0.625, 0.4117647111415863, 0.625,
            0.47058823704719543, 0.625, 0.529411792755127, 0.625,
            0.5882353186607361, 0.625, 0.6470588445663452, 0.625,
            0.7058823704719543, 0.625, 0.7647058963775635, 0.625,
            0.8235294222831726, 0.625, 0.8823529481887817, 0.625,
            0.9411764740943909, 0.625, 1, 0.75, 0, 0.75, 0.05882352963089943,
            0.75, 0.11764705926179886, 0.75, 0.1764705926179886, 0.75,
            0.23529411852359772, 0.75, 0.29411765933036804, 0.75,
            0.3529411852359772, 0.75, 0.4117647111415863, 0.75,
            0.47058823704719543, 0.75, 0.529411792755127, 0.75,
            0.5882353186607361, 0.75, 0.6470588445663452, 0.75,
            0.7058823704719543, 0.75, 0.7647058963775635, 0.75,
            0.8235294222831726, 0.75, 0.8823529481887817, 0.75,
            0.9411764740943909, 0.75, 1, 0.875, 0, 0.875, 0.05882352963089943,
            0.875, 0.11764705926179886, 0.875, 0.1764705926179886, 0.875,
            0.23529411852359772, 0.875, 0.29411765933036804, 0.875,
            0.3529411852359772, 0.875, 0.4117647111415863, 0.875,
            0.47058823704719543, 0.875, 0.529411792755127, 0.875,
            0.5882353186607361, 0.875, 0.6470588445663452, 0.875,
            0.7058823704719543, 0.875, 0.7647058963775635, 0.875,
            0.8235294222831726, 0.875, 0.8823529481887817, 0.875,
            0.9411764740943909, 0.875, 1, 1, 0, 1, 0.05882352963089943, 1,
            0.11764705926179886, 1, 0.1764705926179886, 1, 0.23529411852359772,
            1, 0.29411765933036804, 1, 0.3529411852359772, 1,
            0.4117647111415863, 1, 0.47058823704719543, 1, 0.529411792755127, 1,
            0.5882353186607361, 1, 0.6470588445663452, 1, 0.7058823704719543, 1,
            0.7647058963775635, 1, 0.8235294222831726, 1, 0.8823529481887817, 1,
            0.9411764740943909, 1, 1, 0, 0, 0, 0.05882352963089943, 0,
            0.11764705926179886, 0, 0.1764705926179886, 0, 0.23529411852359772,
            0, 0.29411765933036804, 0, 0.3529411852359772, 0,
            0.4117647111415863, 0, 0.47058823704719543, 0, 0.529411792755127, 0,
            0.5882353186607361, 0, 0.6470588445663452, 0, 0.7058823704719543, 0,
            0.7647058963775635, 0, 0.8235294222831726, 0, 0.8823529481887817, 0,
            0.9411764740943909, 0, 1, 0.125, 0, 0.125, 0.05882352963089943,
            0.125, 0.11764705926179886, 0.125, 0.1764705926179886, 0.125,
            0.23529411852359772, 0.125, 0.29411765933036804, 0.125,
            0.3529411852359772, 0.125, 0.4117647111415863, 0.125,
            0.47058823704719543, 0.125, 0.529411792755127, 0.125,
            0.5882353186607361, 0.125, 0.6470588445663452, 0.125,
            0.7058823704719543, 0.125, 0.7647058963775635, 0.125,
            0.8235294222831726, 0.125, 0.8823529481887817, 0.125,
            0.9411764740943909, 0.125, 1, 0.25, 0, 0.25, 0.05882352963089943,
            0.25, 0.11764705926179886, 0.25, 0.1764705926179886, 0.25,
            0.23529411852359772, 0.25, 0.29411765933036804, 0.25,
            0.3529411852359772, 0.25, 0.4117647111415863, 0.25,
            0.47058823704719543, 0.25, 0.529411792755127, 0.25,
            0.5882353186607361, 0.25, 0.6470588445663452, 0.25,
            0.7058823704719543, 0.25, 0.7647058963775635, 0.25,
            0.8235294222831726, 0.25, 0.8823529481887817, 0.25,
            0.9411764740943909, 0.25, 1, 0.375, 0, 0.375, 0.05882352963089943,
            0.375, 0.11764705926179886, 0.375, 0.1764705926179886, 0.375,
            0.23529411852359772, 0.375, 0.29411765933036804, 0.375,
            0.3529411852359772, 0.375, 0.4117647111415863, 0.375,
            0.47058823704719543, 0.375, 0.529411792755127, 0.375,
            0.5882353186607361, 0.375, 0.6470588445663452, 0.375,
            0.7058823704719543, 0.375, 0.7647058963775635, 0.375,
            0.8235294222831726, 0.375, 0.8823529481887817, 0.375,
            0.9411764740943909, 0.375, 1, 0.5, 0, 0.5, 0.05882352963089943, 0.5,
            0.11764705926179886, 0.5, 0.1764705926179886, 0.5,
            0.23529411852359772, 0.5, 0.29411765933036804, 0.5,
            0.3529411852359772, 0.5, 0.4117647111415863, 0.5,
            0.47058823704719543, 0.5, 0.529411792755127, 0.5,
            0.5882353186607361, 0.5, 0.6470588445663452, 0.5,
            0.7058823704719543, 0.5, 0.7647058963775635, 0.5,
            0.8235294222831726, 0.5, 0.8823529481887817, 0.5,
            0.9411764740943909, 0.5, 1, 0.625, 0, 0.625, 0.05882352963089943,
            0.625, 0.11764705926179886, 0.625, 0.1764705926179886, 0.625,
            0.23529411852359772, 0.625, 0.29411765933036804, 0.625,
            0.3529411852359772, 0.625, 0.4117647111415863, 0.625,
            0.47058823704719543, 0.625, 0.529411792755127, 0.625,
            0.5882353186607361, 0.625, 0.6470588445663452, 0.625,
            0.7058823704719543, 0.625, 0.7647058963775635, 0.625,
            0.8235294222831726, 0.625, 0.8823529481887817, 0.625,
            0.9411764740943909, 0.625, 1, 0.75, 0, 0.75, 0.05882352963089943,
            0.75, 0.11764705926179886, 0.75, 0.1764705926179886, 0.75,
            0.23529411852359772, 0.75, 0.29411765933036804, 0.75,
            0.3529411852359772, 0.75, 0.4117647111415863, 0.75,
            0.47058823704719543, 0.75, 0.529411792755127, 0.75,
            0.5882353186607361, 0.75, 0.6470588445663452, 0.75,
            0.7058823704719543, 0.75, 0.7647058963775635, 0.75,
            0.8235294222831726, 0.75, 0.8823529481887817, 0.75,
            0.9411764740943909, 0.75, 1, 0.875, 0, 0.875, 0.05882352963089943,
            0.875, 0.11764705926179886, 0.875, 0.1764705926179886, 0.875,
            0.23529411852359772, 0.875, 0.29411765933036804, 0.875,
            0.3529411852359772, 0.875, 0.4117647111415863, 0.875,
            0.47058823704719543, 0.875, 0.529411792755127, 0.875,
            0.5882353186607361, 0.875, 0.6470588445663452, 0.875,
            0.7058823704719543, 0.875, 0.7647058963775635, 0.875,
            0.8235294222831726, 0.875, 0.8823529481887817, 0.875,
            0.9411764740943909, 0.875, 1, 1, 0, 1, 0.05882352963089943, 1,
            0.11764705926179886, 1, 0.1764705926179886, 1, 0.23529411852359772,
            1, 0.29411765933036804, 1, 0.3529411852359772, 1,
            0.4117647111415863, 1, 0.47058823704719543, 1, 0.529411792755127, 1,
            0.5882353186607361, 1, 0.6470588445663452, 1, 0.7058823704719543, 1,
            0.7647058963775635, 1, 0.8235294222831726, 1, 0.8823529481887817, 1,
            0.9411764740943909, 1, 1
          ],
          "normalized": false
        },
        "normal": {
          "itemSize": 3,
          "type": "Float32Array",
          "array": [
            0, -0.9951847195625305, 0.0980171412229538, 0, -0.9807852506637573,
            0.19509032368659973, 0, -0.9238795042037964, 0.3826834261417389, 0,
            -0.8314695954322815, 0.5555702447891235, 0, -0.7071067690849304,
            0.7071067690849304, 0, -0.5555702447891235, 0.8314695954322815, 0,
            -0.3826834261417389, 0.9238795042037964, 0, -0.19509032368659973,
            0.9807852506637573, 0, -0.007422756403684616, 0.9999724626541138, 0,
            0.007422756403684616, 0.9999724626541138, 0, 0.19509032368659973,
            0.9807852506637573, 0, 0.3826834261417389, 0.9238795042037964, 0,
            0.5555702447891235, 0.8314695954322815, 0, 0.7071067690849304,
            0.7071067690849304, 0, 0.8314695954322815, 0.5555702447891235, 0,
            0.9238795042037964, 0.3826834261417389, 0, 0.9807852506637573,
            0.19509032368659973, 0, 0.02198762446641922, 0.0021655920427292585,
            0.06930858641862869, -0.9951847195625305, 0.06930858641862869,
            0.13794969022274017, -0.9807852506637573, 0.13794969022274017,
            0.27059805393218994, -0.9238795042037964, 0.27059805393218994,
            0.39284747838974, -0.8314695954322815, 0.39284747838974, 0.5,
            -0.7071067690849304, 0.5, 0.5879377722740173, -0.5555702447891235,
            0.5879377722740173, 0.6532815098762512, -0.3826834261417389,
            0.6532815098762512, 0.6935199499130249, -0.19509032368659973,
            0.6935199499130249, 0.7070872783660889, -0.007422756403684616,
            0.7070872783660889, 0.7070872783660889, 0.007422756403684616,
            0.7070872783660889, 0.6935199499130249, 0.19509032368659973,
            0.6935199499130249, 0.6532815098762512, 0.3826834261417389,
            0.6532815098762512, 0.5879377722740173, 0.5555702447891235,
            0.5879377722740173, 0.5, 0.7071067690849304, 0.5, 0.39284747838974,
            0.8314695954322815, 0.39284747838974, 0.27059805393218994,
            0.9238795042037964, 0.27059805393218994, 0.13794969022274017,
            0.9807852506637573, 0.13794969022274017, 0.0015313047915697098,
            0.02198762446641922, 0.0015313047915697098, 0.0980171412229538,
            -0.9951847195625305, 6.001819038254081e-18, 0.19509032368659973,
            -0.9807852506637573, 1.1945837176844794e-17, 0.3826834261417389,
            -0.9238795042037964, 2.3432602348612458e-17, 0.5555702447891235,
            -0.8314695954322815, 3.401886479114978e-17, 0.7071067690849304,
            -0.7071067690849304, 4.329780301713277e-17, 0.8314695954322815,
            -0.5555702447891235, 5.0912831045018395e-17, 0.9238795042037964,
            -0.3826834261417389, 5.657130560897519e-17, 0.9807852506637573,
            -0.19509032368659973, 6.005578077829767e-17, 0.9999724626541138,
            -0.007422756403684616, 6.123065518080878e-17, 0.9999724626541138,
            0.007422756403684616, 6.123065518080878e-17, 0.9807852506637573,
            0.19509032368659973, 6.005578077829767e-17, 0.9238795042037964,
            0.3826834261417389, 5.657130560897519e-17, 0.8314695954322815,
            0.5555702447891235, 5.0912831045018395e-17, 0.7071067690849304,
            0.7071067690849304, 4.329780301713277e-17, 0.5555702447891235,
            0.8314695954322815, 3.401886479114978e-17, 0.3826834261417389,
            0.9238795042037964, 2.3432602348612458e-17, 0.19509032368659973,
            0.9807852506637573, 1.1945837176844794e-17, 0.0021655920427292585,
            0.02198762446641922, 1.3260426417321603e-19, 0.06930858641862869,
            -0.9951847195625305, -0.06930858641862869, 0.13794969022274017,
            -0.9807852506637573, -0.13794969022274017, 0.27059805393218994,
            -0.9238795042037964, -0.27059805393218994, 0.39284747838974,
            -0.8314695954322815, -0.39284747838974, 0.5, -0.7071067690849304,
            -0.5, 0.5879377722740173, -0.5555702447891235, -0.5879377722740173,
            0.6532815098762512, -0.3826834261417389, -0.6532815098762512,
            0.6935199499130249, -0.19509032368659973, -0.6935199499130249,
            0.7070872783660889, -0.007422756403684616, -0.7070872783660889,
            0.7070872783660889, 0.007422756403684616, -0.7070872783660889,
            0.6935199499130249, 0.19509032368659973, -0.6935199499130249,
            0.6532815098762512, 0.3826834261417389, -0.6532815098762512,
            0.5879377722740173, 0.5555702447891235, -0.5879377722740173, 0.5,
            0.7071067690849304, -0.5, 0.39284747838974, 0.8314695954322815,
            -0.39284747838974, 0.27059805393218994, 0.9238795042037964,
            -0.27059805393218994, 0.13794969022274017, 0.9807852506637573,
            -0.13794969022274017, 0.0015313047915697098, 0.02198762446641922,
            -0.0015313047915697098, 1.2003638076508162e-17, -0.9951847195625305,
            -0.0980171412229538, 2.3891674353689587e-17, -0.9807852506637573,
            -0.19509032368659973, 4.6865204697224915e-17, -0.9238795042037964,
            -0.3826834261417389, 6.803772958229956e-17, -0.8314695954322815,
            -0.5555702447891235, 8.659560603426554e-17, -0.7071067690849304,
            -0.7071067690849304, 1.0182566209003679e-16, -0.5555702447891235,
            -0.8314695954322815, 1.1314261121795038e-16, -0.3826834261417389,
            -0.9238795042037964, 1.2011156155659533e-16, -0.19509032368659973,
            -0.9807852506637573, 1.2246131036161757e-16, -0.007422756403684616,
            -0.9999724626541138, 1.2246131036161757e-16, 0.007422756403684616,
            -0.9999724626541138, 1.2011156155659533e-16, 0.19509032368659973,
            -0.9807852506637573, 1.1314261121795038e-16, 0.3826834261417389,
            -0.9238795042037964, 1.0182566209003679e-16, 0.5555702447891235,
            -0.8314695954322815, 8.659560603426554e-17, 0.7071067690849304,
            -0.7071067690849304, 6.803772958229956e-17, 0.8314695954322815,
            -0.5555702447891235, 4.6865204697224915e-17, 0.9238795042037964,
            -0.3826834261417389, 2.3891674353689587e-17, 0.9807852506637573,
            -0.19509032368659973, 2.6520852834643207e-19, 0.02198762446641922,
            -0.0021655920427292585, -0.06930858641862869, -0.9951847195625305,
            -0.06930858641862869, -0.13794969022274017, -0.9807852506637573,
            -0.13794969022274017, -0.27059805393218994, -0.9238795042037964,
            -0.27059805393218994, -0.39284747838974, -0.8314695954322815,
            -0.39284747838974, -0.5, -0.7071067690849304, -0.5,
            -0.5879377722740173, -0.5555702447891235, -0.5879377722740173,
            -0.6532815098762512, -0.3826834261417389, -0.6532815098762512,
            -0.6935199499130249, -0.19509032368659973, -0.6935199499130249,
            -0.7070872783660889, -0.007422756403684616, -0.7070872783660889,
            -0.7070872783660889, 0.007422756403684616, -0.7070872783660889,
            -0.6935199499130249, 0.19509032368659973, -0.6935199499130249,
            -0.6532815098762512, 0.3826834261417389, -0.6532815098762512,
            -0.5879377722740173, 0.5555702447891235, -0.5879377722740173, -0.5,
            0.7071067690849304, -0.5, -0.39284747838974, 0.8314695954322815,
            -0.39284747838974, -0.27059805393218994, 0.9238795042037964,
            -0.27059805393218994, -0.13794969022274017, 0.9807852506637573,
            -0.13794969022274017, -0.0015313047915697098, 0.02198762446641922,
            -0.0015313047915697098, -0.0980171412229538, -0.9951847195625305,
            -1.8005457114762242e-17, -0.19509032368659973, -0.9807852506637573,
            -3.583751070335377e-17, -0.3826834261417389, -0.9238795042037964,
            -7.029780539147615e-17, -0.5555702447891235, -0.8314695954322815,
            -1.020565976821718e-16, -0.7071067690849304, -0.7071067690849304,
            -1.2989340243395341e-16, -0.8314695954322815, -0.5555702447891235,
            -1.5273848982633273e-16, -0.9238795042037964, -0.3826834261417389,
            -1.6971391682692557e-16, -0.9807852506637573, -0.19509032368659973,
            -1.801673357174481e-16, -0.9999724626541138, -0.007422756403684616,
            -1.8369195892498145e-16, -0.9999724626541138, 0.007422756403684616,
            -1.8369195892498145e-16, -0.9807852506637573, 0.19509032368659973,
            -1.801673357174481e-16, -0.9238795042037964, 0.3826834261417389,
            -1.6971391682692557e-16, -0.8314695954322815, 0.5555702447891235,
            -1.5273848982633273e-16, -0.7071067690849304, 0.7071067690849304,
            -1.2989340243395341e-16, -0.5555702447891235, 0.8314695954322815,
            -1.020565976821718e-16, -0.3826834261417389, 0.9238795042037964,
            -7.029780539147615e-17, -0.19509032368659973, 0.9807852506637573,
            -3.583751070335377e-17, -0.0021655920427292585, 0.02198762446641922,
            -3.978127925196481e-19, -0.06930858641862869, -0.9951847195625305,
            0.06930858641862869, -0.13794969022274017, -0.9807852506637573,
            0.13794969022274017, -0.27059805393218994, -0.9238795042037964,
            0.27059805393218994, -0.39284747838974, -0.8314695954322815,
            0.39284747838974, -0.5, -0.7071067690849304, 0.5,
            -0.5879377722740173, -0.5555702447891235, 0.5879377722740173,
            -0.6532815098762512, -0.3826834261417389, 0.6532815098762512,
            -0.6935199499130249, -0.19509032368659973, 0.6935199499130249,
            -0.7070872783660889, -0.007422756403684616, 0.7070872783660889,
            -0.7070872783660889, 0.007422756403684616, 0.7070872783660889,
            -0.6935199499130249, 0.19509032368659973, 0.6935199499130249,
            -0.6532815098762512, 0.3826834261417389, 0.6532815098762512,
            -0.5879377722740173, 0.5555702447891235, 0.5879377722740173, -0.5,
            0.7071067690849304, 0.5, -0.39284747838974, 0.8314695954322815,
            0.39284747838974, -0.27059805393218994, 0.9238795042037964,
            0.27059805393218994, -0.13794969022274017, 0.9807852506637573,
            0.13794969022274017, -0.0015313047915697098, 0.02198762446641922,
            0.0015313047915697098, -2.4007276153016323e-17, -0.9951847195625305,
            0.0980171412229538, -4.7783348707379174e-17, -0.9807852506637573,
            0.19509032368659973, -9.373040939444983e-17, -0.9238795042037964,
            0.3826834261417389, -1.3607545916459912e-16, -0.8314695954322815,
            0.5555702447891235, -1.7319121206853109e-16, -0.7071067690849304,
            0.7071067690849304, -2.0365132418007358e-16, -0.5555702447891235,
            0.8314695954322815, -2.2628522243590076e-16, -0.3826834261417389,
            0.9238795042037964, -2.4022312311319067e-16, -0.19509032368659973,
            0.9807852506637573, -2.4492262072323514e-16, -0.007422756403684616,
            0.9999724626541138, -2.4492262072323514e-16, 0.007422756403684616,
            0.9999724626541138, -2.4022312311319067e-16, 0.19509032368659973,
            0.9807852506637573, -2.2628522243590076e-16, 0.3826834261417389,
            0.9238795042037964, -2.0365132418007358e-16, 0.5555702447891235,
            0.8314695954322815, -1.7319121206853109e-16, 0.7071067690849304,
            0.7071067690849304, -1.3607545916459912e-16, 0.8314695954322815,
            0.5555702447891235, -9.373040939444983e-17, 0.9238795042037964,
            0.3826834261417389, -4.7783348707379174e-17, 0.9807852506637573,
            0.19509032368659973, -5.304170566928641e-19, 0.02198762446641922,
            0.0021655920427292585, 0, -0.9951847195625305, 0.0980171412229538,
            0, -0.9807852506637573, 0.19509032368659973, 0, -0.9238795042037964,
            0.3826834261417389, 0, -0.8314695954322815, 0.5555702447891235, 0,
            -0.7071067690849304, 0.7071067690849304, 0, -0.5555702447891235,
            0.8314695954322815, 0, -0.3826834261417389, 0.9238795042037964, 0,
            -0.19509032368659973, 0.9807852506637573, 0, -0.016075970605015755,
            0.999870777130127, 0, 0.016075970605015755, 0.999870777130127, 0,
            0.19509032368659973, 0.9807852506637573, 0, 0.3826834261417389,
            0.9238795042037964, 0, 0.5555702447891235, 0.8314695954322815, 0,
            0.7071067690849304, 0.7071067690849304, 0, 0.8314695954322815,
            0.5555702447891235, 0, 0.9238795042037964, 0.3826834261417389, 0,
            0.9807852506637573, 0.19509032368659973, 0, 0.9951847195625305,
            0.0980171412229538, 0.06930858641862869, -0.9951847195625305,
            0.06930858641862869, 0.13794969022274017, -0.9807852506637573,
            0.13794969022274017, 0.27059805393218994, -0.9238795042037964,
            0.27059805393218994, 0.39284747838974, -0.8314695954322815,
            0.39284747838974, 0.5, -0.7071067690849304, 0.5, 0.5879377722740173,
            -0.5555702447891235, 0.5879377722740173, 0.6532815098762512,
            -0.3826834261417389, 0.6532815098762512, 0.6935199499130249,
            -0.19509032368659973, 0.6935199499130249, 0.7070153951644897,
            -0.016075970605015755, 0.7070153951644897, 0.7070153951644897,
            0.016075970605015755, 0.7070153951644897, 0.6935199499130249,
            0.19509032368659973, 0.6935199499130249, 0.6532815098762512,
            0.3826834261417389, 0.6532815098762512, 0.5879377722740173,
            0.5555702447891235, 0.5879377722740173, 0.5, 0.7071067690849304,
            0.5, 0.39284747838974, 0.8314695954322815, 0.39284747838974,
            0.27059805393218994, 0.9238795042037964, 0.27059805393218994,
            0.13794969022274017, 0.9807852506637573, 0.13794969022274017,
            0.06930858641862869, 0.9951847195625305, 0.06930858641862869,
            0.0980171412229538, -0.9951847195625305, 6.001819038254081e-18,
            0.19509032368659973, -0.9807852506637573, 1.1945837176844794e-17,
            0.3826834261417389, -0.9238795042037964, 2.3432602348612458e-17,
            0.5555702447891235, -0.8314695954322815, 3.401886479114978e-17,
            0.7071067690849304, -0.7071067690849304, 4.329780301713277e-17,
            0.8314695954322815, -0.5555702447891235, 5.0912831045018395e-17,
            0.9238795042037964, -0.3826834261417389, 5.657130560897519e-17,
            0.9807852506637573, -0.19509032368659973, 6.005578077829767e-17,
            0.999870777130127, -0.016075970605015755, 6.122442816515749e-17,
            0.999870777130127, 0.016075970605015755, 6.122442816515749e-17,
            0.9807852506637573, 0.19509032368659973, 6.005578077829767e-17,
            0.9238795042037964, 0.3826834261417389, 5.657130560897519e-17,
            0.8314695954322815, 0.5555702447891235, 5.0912831045018395e-17,
            0.7071067690849304, 0.7071067690849304, 4.329780301713277e-17,
            0.5555702447891235, 0.8314695954322815, 3.401886479114978e-17,
            0.3826834261417389, 0.9238795042037964, 2.3432602348612458e-17,
            0.19509032368659973, 0.9807852506637573, 1.1945837176844794e-17,
            0.0980171412229538, 0.9951847195625305, 6.001819038254081e-18,
            0.06930858641862869, -0.9951847195625305, -0.06930858641862869,
            0.13794969022274017, -0.9807852506637573, -0.13794969022274017,
            0.27059805393218994, -0.9238795042037964, -0.27059805393218994,
            0.39284747838974, -0.8314695954322815, -0.39284747838974, 0.5,
            -0.7071067690849304, -0.5, 0.5879377722740173, -0.5555702447891235,
            -0.5879377722740173, 0.6532815098762512, -0.3826834261417389,
            -0.6532815098762512, 0.6935199499130249, -0.19509032368659973,
            -0.6935199499130249, 0.7070153951644897, -0.016075970605015755,
            -0.7070153951644897, 0.7070153951644897, 0.016075970605015755,
            -0.7070153951644897, 0.6935199499130249, 0.19509032368659973,
            -0.6935199499130249, 0.6532815098762512, 0.3826834261417389,
            -0.6532815098762512, 0.5879377722740173, 0.5555702447891235,
            -0.5879377722740173, 0.5, 0.7071067690849304, -0.5,
            0.39284747838974, 0.8314695954322815, -0.39284747838974,
            0.27059805393218994, 0.9238795042037964, -0.27059805393218994,
            0.13794969022274017, 0.9807852506637573, -0.13794969022274017,
            0.06930858641862869, 0.9951847195625305, -0.06930858641862869,
            1.2003638076508162e-17, -0.9951847195625305, -0.0980171412229538,
            2.3891674353689587e-17, -0.9807852506637573, -0.19509032368659973,
            4.6865204697224915e-17, -0.9238795042037964, -0.3826834261417389,
            6.803772958229956e-17, -0.8314695954322815, -0.5555702447891235,
            8.659560603426554e-17, -0.7071067690849304, -0.7071067690849304,
            1.0182566209003679e-16, -0.5555702447891235, -0.8314695954322815,
            1.1314261121795038e-16, -0.3826834261417389, -0.9238795042037964,
            1.2011156155659533e-16, -0.19509032368659973, -0.9807852506637573,
            1.2244885633031497e-16, -0.016075970605015755, -0.999870777130127,
            1.2244885633031497e-16, 0.016075970605015755, -0.999870777130127,
            1.2011156155659533e-16, 0.19509032368659973, -0.9807852506637573,
            1.1314261121795038e-16, 0.3826834261417389, -0.9238795042037964,
            1.0182566209003679e-16, 0.5555702447891235, -0.8314695954322815,
            8.659560603426554e-17, 0.7071067690849304, -0.7071067690849304,
            6.803772958229956e-17, 0.8314695954322815, -0.5555702447891235,
            4.6865204697224915e-17, 0.9238795042037964, -0.3826834261417389,
            2.3891674353689587e-17, 0.9807852506637573, -0.19509032368659973,
            1.2003638076508162e-17, 0.9951847195625305, -0.0980171412229538,
            -0.06930858641862869, -0.9951847195625305, -0.06930858641862869,
            -0.13794969022274017, -0.9807852506637573, -0.13794969022274017,
            -0.27059805393218994, -0.9238795042037964, -0.27059805393218994,
            -0.39284747838974, -0.8314695954322815, -0.39284747838974, -0.5,
            -0.7071067690849304, -0.5, -0.5879377722740173, -0.5555702447891235,
            -0.5879377722740173, -0.6532815098762512, -0.3826834261417389,
            -0.6532815098762512, -0.6935199499130249, -0.19509032368659973,
            -0.6935199499130249, -0.7070153951644897, -0.016075970605015755,
            -0.7070153951644897, -0.7070153951644897, 0.016075970605015755,
            -0.7070153951644897, -0.6935199499130249, 0.19509032368659973,
            -0.6935199499130249, -0.6532815098762512, 0.3826834261417389,
            -0.6532815098762512, -0.5879377722740173, 0.5555702447891235,
            -0.5879377722740173, -0.5, 0.7071067690849304, -0.5,
            -0.39284747838974, 0.8314695954322815, -0.39284747838974,
            -0.27059805393218994, 0.9238795042037964, -0.27059805393218994,
            -0.13794969022274017, 0.9807852506637573, -0.13794969022274017,
            -0.06930858641862869, 0.9951847195625305, -0.06930858641862869,
            -0.0980171412229538, -0.9951847195625305, -1.8005457114762242e-17,
            -0.19509032368659973, -0.9807852506637573, -3.583751070335377e-17,
            -0.3826834261417389, -0.9238795042037964, -7.029780539147615e-17,
            -0.5555702447891235, -0.8314695954322815, -1.020565976821718e-16,
            -0.7071067690849304, -0.7071067690849304, -1.2989340243395341e-16,
            -0.8314695954322815, -0.5555702447891235, -1.5273848982633273e-16,
            -0.9238795042037964, -0.3826834261417389, -1.6971391682692557e-16,
            -0.9807852506637573, -0.19509032368659973, -1.801673357174481e-16,
            -0.999870777130127, -0.016075970605015755, -1.8367328449547246e-16,
            -0.999870777130127, 0.016075970605015755, -1.8367328449547246e-16,
            -0.9807852506637573, 0.19509032368659973, -1.801673357174481e-16,
            -0.9238795042037964, 0.3826834261417389, -1.6971391682692557e-16,
            -0.8314695954322815, 0.5555702447891235, -1.5273848982633273e-16,
            -0.7071067690849304, 0.7071067690849304, -1.2989340243395341e-16,
            -0.5555702447891235, 0.8314695954322815, -1.020565976821718e-16,
            -0.3826834261417389, 0.9238795042037964, -7.029780539147615e-17,
            -0.19509032368659973, 0.9807852506637573, -3.583751070335377e-17,
            -0.0980171412229538, 0.9951847195625305, -1.8005457114762242e-17,
            -0.06930858641862869, -0.9951847195625305, 0.06930858641862869,
            -0.13794969022274017, -0.9807852506637573, 0.13794969022274017,
            -0.27059805393218994, -0.9238795042037964, 0.27059805393218994,
            -0.39284747838974, -0.8314695954322815, 0.39284747838974, -0.5,
            -0.7071067690849304, 0.5, -0.5879377722740173, -0.5555702447891235,
            0.5879377722740173, -0.6532815098762512, -0.3826834261417389,
            0.6532815098762512, -0.6935199499130249, -0.19509032368659973,
            0.6935199499130249, -0.7070153951644897, -0.016075970605015755,
            0.7070153951644897, -0.7070153951644897, 0.016075970605015755,
            0.7070153951644897, -0.6935199499130249, 0.19509032368659973,
            0.6935199499130249, -0.6532815098762512, 0.3826834261417389,
            0.6532815098762512, -0.5879377722740173, 0.5555702447891235,
            0.5879377722740173, -0.5, 0.7071067690849304, 0.5,
            -0.39284747838974, 0.8314695954322815, 0.39284747838974,
            -0.27059805393218994, 0.9238795042037964, 0.27059805393218994,
            -0.13794969022274017, 0.9807852506637573, 0.13794969022274017,
            -0.06930858641862869, 0.9951847195625305, 0.06930858641862869,
            -2.4007276153016323e-17, -0.9951847195625305, 0.0980171412229538,
            -4.7783348707379174e-17, -0.9807852506637573, 0.19509032368659973,
            -9.373040939444983e-17, -0.9238795042037964, 0.3826834261417389,
            -1.3607545916459912e-16, -0.8314695954322815, 0.5555702447891235,
            -1.7319121206853109e-16, -0.7071067690849304, 0.7071067690849304,
            -2.0365132418007358e-16, -0.5555702447891235, 0.8314695954322815,
            -2.2628522243590076e-16, -0.3826834261417389, 0.9238795042037964,
            -2.4022312311319067e-16, -0.19509032368659973, 0.9807852506637573,
            -2.4489771266062994e-16, -0.016075970605015755, 0.999870777130127,
            -2.4489771266062994e-16, 0.016075970605015755, 0.999870777130127,
            -2.4022312311319067e-16, 0.19509032368659973, 0.9807852506637573,
            -2.2628522243590076e-16, 0.3826834261417389, 0.9238795042037964,
            -2.0365132418007358e-16, 0.5555702447891235, 0.8314695954322815,
            -1.7319121206853109e-16, 0.7071067690849304, 0.7071067690849304,
            -1.3607545916459912e-16, 0.8314695954322815, 0.5555702447891235,
            -9.373040939444983e-17, 0.9238795042037964, 0.3826834261417389,
            -4.7783348707379174e-17, 0.9807852506637573, 0.19509032368659973,
            -2.4007276153016323e-17, 0.9951847195625305, 0.0980171412229538
          ],
          "normalized": false
        }
      },
      "index": {
        "type": "Uint16Array",
        "array": [
          0, 18, 1, 19, 1, 18, 1, 19, 2, 20, 2, 19, 2, 20, 3, 21, 3, 20, 3, 21,
          4, 22, 4, 21, 4, 22, 5, 23, 5, 22, 5, 23, 6, 24, 6, 23, 6, 24, 7, 25,
          7, 24, 7, 25, 8, 26, 8, 25, 8, 26, 9, 27, 9, 26, 9, 27, 10, 28, 10,
          27, 10, 28, 11, 29, 11, 28, 11, 29, 12, 30, 12, 29, 12, 30, 13, 31,
          13, 30, 13, 31, 14, 32, 14, 31, 14, 32, 15, 33, 15, 32, 15, 33, 16,
          34, 16, 33, 16, 34, 17, 35, 17, 34, 18, 36, 19, 37, 19, 36, 19, 37,
          20, 38, 20, 37, 20, 38, 21, 39, 21, 38, 21, 39, 22, 40, 22, 39, 22,
          40, 23, 41, 23, 40, 23, 41, 24, 42, 24, 41, 24, 42, 25, 43, 25, 42,
          25, 43, 26, 44, 26, 43, 26, 44, 27, 45, 27, 44, 27, 45, 28, 46, 28,
          45, 28, 46, 29, 47, 29, 46, 29, 47, 30, 48, 30, 47, 30, 48, 31, 49,
          31, 48, 31, 49, 32, 50, 32, 49, 32, 50, 33, 51, 33, 50, 33, 51, 34,
          52, 34, 51, 34, 52, 35, 53, 35, 52, 36, 54, 37, 55, 37, 54, 37, 55,
          38, 56, 38, 55, 38, 56, 39, 57, 39, 56, 39, 57, 40, 58, 40, 57, 40,
          58, 41, 59, 41, 58, 41, 59, 42, 60, 42, 59, 42, 60, 43, 61, 43, 60,
          43, 61, 44, 62, 44, 61, 44, 62, 45, 63, 45, 62, 45, 63, 46, 64, 46,
          63, 46, 64, 47, 65, 47, 64, 47, 65, 48, 66, 48, 65, 48, 66, 49, 67,
          49, 66, 49, 67, 50, 68, 50, 67, 50, 68, 51, 69, 51, 68, 51, 69, 52,
          70, 52, 69, 52, 70, 53, 71, 53, 70, 54, 72, 55, 73, 55, 72, 55, 73,
          56, 74, 56, 73, 56, 74, 57, 75, 57, 74, 57, 75, 58, 76, 58, 75, 58,
          76, 59, 77, 59, 76, 59, 77, 60, 78, 60, 77, 60, 78, 61, 79, 61, 78,
          61, 79, 62, 80, 62, 79, 62, 80, 63, 81, 63, 80, 63, 81, 64, 82, 64,
          81, 64, 82, 65, 83, 65, 82, 65, 83, 66, 84, 66, 83, 66, 84, 67, 85,
          67, 84, 67, 85, 68, 86, 68, 85, 68, 86, 69, 87, 69, 86, 69, 87, 70,
          88, 70, 87, 70, 88, 71, 89, 71, 88, 72, 90, 73, 91, 73, 90, 73, 91,
          74, 92, 74, 91, 74, 92, 75, 93, 75, 92, 75, 93, 76, 94, 76, 93, 76,
          94, 77, 95, 77, 94, 77, 95, 78, 96, 78, 95, 78, 96, 79, 97, 79, 96,
          79, 97, 80, 98, 80, 97, 80, 98, 81, 99, 81, 98, 81, 99, 82, 100, 82,
          99, 82, 100, 83, 101, 83, 100, 83, 101, 84, 102, 84, 101, 84, 102, 85,
          103, 85, 102, 85, 103, 86, 104, 86, 103, 86, 104, 87, 105, 87, 104,
          87, 105, 88, 106, 88, 105, 88, 106, 89, 107, 89, 106, 90, 108, 91,
          109, 91, 108, 91, 109, 92, 110, 92, 109, 92, 110, 93, 111, 93, 110,
          93, 111, 94, 112, 94, 111, 94, 112, 95, 113, 95, 112, 95, 113, 96,
          114, 96, 113, 96, 114, 97, 115, 97, 114, 97, 115, 98, 116, 98, 115,
          98, 116, 99, 117, 99, 116, 99, 117, 100, 118, 100, 117, 100, 118, 101,
          119, 101, 118, 101, 119, 102, 120, 102, 119, 102, 120, 103, 121, 103,
          120, 103, 121, 104, 122, 104, 121, 104, 122, 105, 123, 105, 122, 105,
          123, 106, 124, 106, 123, 106, 124, 107, 125, 107, 124, 108, 126, 109,
          127, 109, 126, 109, 127, 110, 128, 110, 127, 110, 128, 111, 129, 111,
          128, 111, 129, 112, 130, 112, 129, 112, 130, 113, 131, 113, 130, 113,
          131, 114, 132, 114, 131, 114, 132, 115, 133, 115, 132, 115, 133, 116,
          134, 116, 133, 116, 134, 117, 135, 117, 134, 117, 135, 118, 136, 118,
          135, 118, 136, 119, 137, 119, 136, 119, 137, 120, 138, 120, 137, 120,
          138, 121, 139, 121, 138, 121, 139, 122, 140, 122, 139, 122, 140, 123,
          141, 123, 140, 123, 141, 124, 142, 124, 141, 124, 142, 125, 143, 125,
          142, 126, 144, 127, 145, 127, 144, 127, 145, 128, 146, 128, 145, 128,
          146, 129, 147, 129, 146, 129, 147, 130, 148, 130, 147, 130, 148, 131,
          149, 131, 148, 131, 149, 132, 150, 132, 149, 132, 150, 133, 151, 133,
          150, 133, 151, 134, 152, 134, 151, 134, 152, 135, 153, 135, 152, 135,
          153, 136, 154, 136, 153, 136, 154, 137, 155, 137, 154, 137, 155, 138,
          156, 138, 155, 138, 156, 139, 157, 139, 156, 139, 157, 140, 158, 140,
          157, 140, 158, 141, 159, 141, 158, 141, 159, 142, 160, 142, 159, 142,
          160, 143, 161, 143, 160, 162, 180, 163, 181, 163, 180, 163, 181, 164,
          182, 164, 181, 164, 182, 165, 183, 165, 182, 165, 183, 166, 184, 166,
          183, 166, 184, 167, 185, 167, 184, 167, 185, 168, 186, 168, 185, 168,
          186, 169, 187, 169, 186, 169, 187, 170, 188, 170, 187, 170, 188, 171,
          189, 171, 188, 171, 189, 172, 190, 172, 189, 172, 190, 173, 191, 173,
          190, 173, 191, 174, 192, 174, 191, 174, 192, 175, 193, 175, 192, 175,
          193, 176, 194, 176, 193, 176, 194, 177, 195, 177, 194, 177, 195, 178,
          196, 178, 195, 178, 196, 179, 197, 179, 196, 180, 198, 181, 199, 181,
          198, 181, 199, 182, 200, 182, 199, 182, 200, 183, 201, 183, 200, 183,
          201, 184, 202, 184, 201, 184, 202, 185, 203, 185, 202, 185, 203, 186,
          204, 186, 203, 186, 204, 187, 205, 187, 204, 187, 205, 188, 206, 188,
          205, 188, 206, 189, 207, 189, 206, 189, 207, 190, 208, 190, 207, 190,
          208, 191, 209, 191, 208, 191, 209, 192, 210, 192, 209, 192, 210, 193,
          211, 193, 210, 193, 211, 194, 212, 194, 211, 194, 212, 195, 213, 195,
          212, 195, 213, 196, 214, 196, 213, 196, 214, 197, 215, 197, 214, 198,
          216, 199, 217, 199, 216, 199, 217, 200, 218, 200, 217, 200, 218, 201,
          219, 201, 218, 201, 219, 202, 220, 202, 219, 202, 220, 203, 221, 203,
          220, 203, 221, 204, 222, 204, 221, 204, 222, 205, 223, 205, 222, 205,
          223, 206, 224, 206, 223, 206, 224, 207, 225, 207, 224, 207, 225, 208,
          226, 208, 225, 208, 226, 209, 227, 209, 226, 209, 227, 210, 228, 210,
          227, 210, 228, 211, 229, 211, 228, 211, 229, 212, 230, 212, 229, 212,
          230, 213, 231, 213, 230, 213, 231, 214, 232, 214, 231, 214, 232, 215,
          233, 215, 232, 216, 234, 217, 235, 217, 234, 217, 235, 218, 236, 218,
          235, 218, 236, 219, 237, 219, 236, 219, 237, 220, 238, 220, 237, 220,
          238, 221, 239, 221, 238, 221, 239, 222, 240, 222, 239, 222, 240, 223,
          241, 223, 240, 223, 241, 224, 242, 224, 241, 224, 242, 225, 243, 225,
          242, 225, 243, 226, 244, 226, 243, 226, 244, 227, 245, 227, 244, 227,
          245, 228, 246, 228, 245, 228, 246, 229, 247, 229, 246, 229, 247, 230,
          248, 230, 247, 230, 248, 231, 249, 231, 248, 231, 249, 232, 250, 232,
          249, 232, 250, 233, 251, 233, 250, 234, 252, 235, 253, 235, 252, 235,
          253, 236, 254, 236, 253, 236, 254, 237, 255, 237, 254, 237, 255, 238,
          256, 238, 255, 238, 256, 239, 257, 239, 256, 239, 257, 240, 258, 240,
          257, 240, 258, 241, 259, 241, 258, 241, 259, 242, 260, 242, 259, 242,
          260, 243, 261, 243, 260, 243, 261, 244, 262, 244, 261, 244, 262, 245,
          263, 245, 262, 245, 263, 246, 264, 246, 263, 246, 264, 247, 265, 247,
          264, 247, 265, 248, 266, 248, 265, 248, 266, 249, 267, 249, 266, 249,
          267, 250, 268, 250, 267, 250, 268, 251, 269, 251, 268, 252, 270, 253,
          271, 253, 270, 253, 271, 254, 272, 254, 271, 254, 272, 255, 273, 255,
          272, 255, 273, 256, 274, 256, 273, 256, 274, 257, 275, 257, 274, 257,
          275, 258, 276, 258, 275, 258, 276, 259, 277, 259, 276, 259, 277, 260,
          278, 260, 277, 260, 278, 261, 279, 261, 278, 261, 279, 262, 280, 262,
          279, 262, 280, 263, 281, 263, 280, 263, 281, 264, 282, 264, 281, 264,
          282, 265, 283, 265, 282, 265, 283, 266, 284, 266, 283, 266, 284, 267,
          285, 267, 284, 267, 285, 268, 286, 268, 285, 268, 286, 269, 287, 269,
          286, 270, 288, 271, 289, 271, 288, 271, 289, 272, 290, 272, 289, 272,
          290, 273, 291, 273, 290, 273, 291, 274, 292, 274, 291, 274, 292, 275,
          293, 275, 292, 275, 293, 276, 294, 276, 293, 276, 294, 277, 295, 277,
          294, 277, 295, 278, 296, 278, 295, 278, 296, 279, 297, 279, 296, 279,
          297, 280, 298, 280, 297, 280, 298, 281, 299, 281, 298, 281, 299, 282,
          300, 282, 299, 282, 300, 283, 301, 283, 300, 283, 301, 284, 302, 284,
          301, 284, 302, 285, 303, 285, 302, 285, 303, 286, 304, 286, 303, 286,
          304, 287, 305, 287, 304, 288, 306, 289, 307, 289, 306, 289, 307, 290,
          308, 290, 307, 290, 308, 291, 309, 291, 308, 291, 309, 292, 310, 292,
          309, 292, 310, 293, 311, 293, 310, 293, 311, 294, 312, 294, 311, 294,
          312, 295, 313, 295, 312, 295, 313, 296, 314, 296, 313, 296, 314, 297,
          315, 297, 314, 297, 315, 298, 316, 298, 315, 298, 316, 299, 317, 299,
          316, 299, 317, 300, 318, 300, 317, 300, 318, 301, 319, 301, 318, 301,
          319, 302, 320, 302, 319, 302, 320, 303, 321, 303, 320, 303, 321, 304,
          322, 304, 321, 304, 322, 305, 323, 305, 322
        ]
      },
      "boundingSphere": {
        "center": [0, 0.05577782541513443, 0],
        "radius": 0.3033600375056267
      }
    }
  },
  "material": {
    "metadata": {
      "version": 4.5,
      "type": "Material",
      "generator": "Material.toJSON"
    },
    "uuid": "b67e5d16-bc01-4ecb-9774-fdf16e146f0d",
    "type": "MeshBasicMaterial",
    "color": 4864906,
    "reflectivity": 1,
    "refractionRatio": 0.98,
    "depthFunc": 3,
    "depthTest": true,
    "depthWrite": true,
    "colorWrite": true,
    "stencilWrite": false,
    "stencilWriteMask": 255,
    "stencilFunc": 519,
    "stencilRef": 0,
    "stencilFuncMask": 255,
    "stencilFail": 7680,
    "stencilZFail": 7680,
    "stencilZPass": 7680
  },
  "speed": {
    "x": -0.002246738768643347,
    "y": 0.0013652647307619186,
    "z": 0
  },
  "genome": {
    "words": [
      0.8090003529066642, 0.4463423395272845, 0.5658490774999655,
      0.2835023914306148, 0.3826035584444719, 0.8656957731115673,
      0.749541371873809, 0.5922078468302262, 0.6085134207163205,
      0.16950161074243822, 0.7151301912062392, 0.836551402500686,
      0.1094688017244055, 0.4885580898803547, 0.5794100837933985,
      0.526657339793511, 0.36649635116701124
    ]
  },
  "rotation": -1.0247902573699765,
  "acceleration": 0.0000669661881461213,
  "hp": 101.70096644546292,
  "energy": 89.3380466806877,
  "mesh": {
    "metadata": {
      "version": 4.5,
      "type": "Object",
      "generator": "Object3D.toJSON"
    },
    "geometries": [
      {
        "uuid": "a5dcae0a-69b8-4f5d-b170-314e21f65703",
        "type": "BufferGeometry",
        "data": {
          "attributes": {
            "position": {
              "itemSize": 3,
              "type": "Float32Array",
              "array": [
                0, -0.24758221209049225, -2.0703544910620357e-17, 0,
                -0.24541661143302917, 0.02198762446641922, 0,
                -0.23900306224822998, 0.04313027858734131, 0,
                -0.2285880148410797, 0.06261546164751053, 0,
                -0.2145717293024063, 0.07969436049461365, 0,
                -0.1974928230047226, 0.09371065348386765, 0,
                -0.17800763249397278, 0.10412570089101791, 0,
                -0.1568649858236313, 0.1105392575263977, 0,
                -0.13487736880779266, 0.11270484328269958, 0,
                0.13487736880779266, 0.11270484328269958, 0, 0.1568649858236313,
                0.1105392575263977, 0, 0.17800763249397278, 0.10412570089101791,
                0, 0.1974928230047226, 0.09371065348386765, 0,
                0.2145717293024063, 0.07969436049461365, 0, 0.2285880148410797,
                0.06261546164751053, 0, 0.23900306224822998,
                0.04313027858734131, 0, 0.24541661143302917,
                0.02198762446641922, 0, 0.24758221209049225,
                6.901181499010017e-18, -1.463961618889212e-17,
                -0.24758221209049225, -1.463961618889212e-17,
                0.015547598712146282, -0.24541661143302917,
                0.015547598712146282, 0.030497711151838303,
                -0.23900306224822998, 0.030497711151838303, 0.04427581652998924,
                -0.2285880148410797, 0.04427581652998924, 0.05635242164134979,
                -0.2145717293024063, 0.05635242164134979, 0.06626343727111816,
                -0.1974928230047226, 0.06626343727111816, 0.07362798601388931,
                -0.17800763249397278, 0.07362798601388931, 0.07816305756568909,
                -0.1568649858236313, 0.07816305756568909, 0.07969436049461365,
                -0.13487736880779266, 0.07969436049461365, 0.07969436049461365,
                0.13487736880779266, 0.07969436049461365, 0.07816305756568909,
                0.1568649858236313, 0.07816305756568909, 0.07362798601388931,
                0.17800763249397278, 0.07362798601388931, 0.06626343727111816,
                0.1974928230047226, 0.06626343727111816, 0.05635242164134979,
                0.2145717293024063, 0.05635242164134979, 0.04427581652998924,
                0.2285880148410797, 0.04427581652998924, 0.030497711151838303,
                0.23900306224822998, 0.030497711151838303, 0.015547598712146282,
                0.24541661143302917, 0.015547598712146282,
                4.8798722008274754e-18, 0.24758221209049225,
                4.8798722008274754e-18, -2.0703544910620357e-17,
                -0.24758221209049225, -1.267726484488185e-33,
                0.02198762446641922, -0.24541661143302917,
                1.346353699781882e-18, 0.04313027858734131,
                -0.23900306224822998, 2.6409678726340314e-18,
                0.06261546164751053, -0.2285880148410797, 3.834090913433834e-18,
                0.07969436049461365, -0.2145717293024063,
                4.8798722008274754e-18, 0.09371065348386765,
                -0.1974928230047226, 5.738122544368607e-18, 0.10412570089101791,
                -0.17800763249397278, 6.375860185083209e-18, 0.1105392575263977,
                -0.1568649858236313, 6.76857741578256e-18, 0.11270484328269958,
                -0.13487736880779266, 6.901181499010017e-18,
                0.11270484328269958, 0.13487736880779266, 6.901181499010017e-18,
                0.1105392575263977, 0.1568649858236313, 6.76857741578256e-18,
                0.10412570089101791, 0.17800763249397278, 6.375860185083209e-18,
                0.09371065348386765, 0.1974928230047226, 5.738122544368607e-18,
                0.07969436049461365, 0.2145717293024063, 4.8798722008274754e-18,
                0.06261546164751053, 0.2285880148410797, 3.834090913433834e-18,
                0.04313027858734131, 0.23900306224822998,
                2.6409678726340314e-18, 0.02198762446641922,
                0.24541661143302917, 1.346353699781882e-18,
                6.901181499010017e-18, 0.24758221209049225,
                4.22575479523479e-34, -1.463961618889212e-17,
                -0.24758221209049225, 1.463961618889212e-17,
                0.015547598712146282, -0.24541661143302917,
                -0.015547598712146282, 0.030497711151838303,
                -0.23900306224822998, -0.030497711151838303,
                0.04427581652998924, -0.2285880148410797, -0.04427581652998924,
                0.05635242164134979, -0.2145717293024063, -0.05635242164134979,
                0.06626343727111816, -0.1974928230047226, -0.06626343727111816,
                0.07362798601388931, -0.17800763249397278, -0.07362798601388931,
                0.07816305756568909, -0.1568649858236313, -0.07816305756568909,
                0.07969436049461365, -0.13487736880779266, -0.07969436049461365,
                0.07969436049461365, 0.13487736880779266, -0.07969436049461365,
                0.07816305756568909, 0.1568649858236313, -0.07816305756568909,
                0.07362798601388931, 0.17800763249397278, -0.07362798601388931,
                0.06626343727111816, 0.1974928230047226, -0.06626343727111816,
                0.05635242164134979, 0.2145717293024063, -0.05635242164134979,
                0.04427581652998924, 0.2285880148410797, -0.04427581652998924,
                0.030497711151838303, 0.23900306224822998,
                -0.030497711151838303, 0.015547598712146282,
                0.24541661143302917, -0.015547598712146282,
                4.8798722008274754e-18, 0.24758221209049225,
                -4.8798722008274754e-18, -2.53545296897637e-33,
                -0.24758221209049225, 2.0703544910620357e-17,
                2.692707399563764e-18, -0.24541661143302917,
                -0.02198762446641922, 5.281935745268063e-18,
                -0.23900306224822998, -0.04313027858734131,
                7.668181826867668e-18, -0.2285880148410797,
                -0.06261546164751053, 9.759744401654951e-18,
                -0.2145717293024063, -0.07969436049461365,
                1.1476245088737215e-17, -0.1974928230047226,
                -0.09371065348386765, 1.2751720370166418e-17,
                -0.17800763249397278, -0.10412570089101791,
                1.353715483156512e-17, -0.1568649858236313, -0.1105392575263977,
                1.3802362998020034e-17, -0.13487736880779266,
                -0.11270484328269958, 1.3802362998020034e-17,
                0.13487736880779266, -0.11270484328269958,
                1.353715483156512e-17, 0.1568649858236313, -0.1105392575263977,
                1.2751720370166418e-17, 0.17800763249397278,
                -0.10412570089101791, 1.1476245088737215e-17,
                0.1974928230047226, -0.09371065348386765, 9.759744401654951e-18,
                0.2145717293024063, -0.07969436049461365, 7.668181826867668e-18,
                0.2285880148410797, -0.06261546164751053, 5.281935745268063e-18,
                0.23900306224822998, -0.04313027858734131,
                2.692707399563764e-18, 0.24541661143302917,
                -0.02198762446641922, 8.45150959046958e-34, 0.24758221209049225,
                -6.901181499010017e-18, 1.463961618889212e-17,
                -0.24758221209049225, 1.463961618889212e-17,
                -0.015547598712146282, -0.24541661143302917,
                -0.015547598712146282, -0.030497711151838303,
                -0.23900306224822998, -0.030497711151838303,
                -0.04427581652998924, -0.2285880148410797, -0.04427581652998924,
                -0.05635242164134979, -0.2145717293024063, -0.05635242164134979,
                -0.06626343727111816, -0.1974928230047226, -0.06626343727111816,
                -0.07362798601388931, -0.17800763249397278,
                -0.07362798601388931, -0.07816305756568909, -0.1568649858236313,
                -0.07816305756568909, -0.07969436049461365,
                -0.13487736880779266, -0.07969436049461365,
                -0.07969436049461365, 0.13487736880779266, -0.07969436049461365,
                -0.07816305756568909, 0.1568649858236313, -0.07816305756568909,
                -0.07362798601388931, 0.17800763249397278, -0.07362798601388931,
                -0.06626343727111816, 0.1974928230047226, -0.06626343727111816,
                -0.05635242164134979, 0.2145717293024063, -0.05635242164134979,
                -0.04427581652998924, 0.2285880148410797, -0.04427581652998924,
                -0.030497711151838303, 0.23900306224822998,
                -0.030497711151838303, -0.015547598712146282,
                0.24541661143302917, -0.015547598712146282,
                -4.8798722008274754e-18, 0.24758221209049225,
                -4.8798722008274754e-18, 2.0703544910620357e-17,
                -0.24758221209049225, 3.803179361629059e-33,
                -0.02198762446641922, -0.24541661143302917,
                -4.039061306140799e-18, -0.04313027858734131,
                -0.23900306224822998, -7.922903824697247e-18,
                -0.06261546164751053, -0.2285880148410797,
                -1.1502273153891808e-17, -0.07969436049461365,
                -0.2145717293024063, -1.463961618889212e-17,
                -0.09371065348386765, -0.1974928230047226,
                -1.7214368046696128e-17, -0.10412570089101791,
                -0.17800763249397278, -1.9127580555249628e-17,
                -0.1105392575263977, -0.1568649858236313,
                -2.030573224734768e-17, -0.11270484328269958,
                -0.13487736880779266, -2.0703544910620357e-17,
                -0.11270484328269958, 0.13487736880779266,
                -2.0703544910620357e-17, -0.1105392575263977,
                0.1568649858236313, -2.030573224734768e-17,
                -0.10412570089101791, 0.17800763249397278,
                -1.9127580555249628e-17, -0.09371065348386765,
                0.1974928230047226, -1.7214368046696128e-17,
                -0.07969436049461365, 0.2145717293024063,
                -1.463961618889212e-17, -0.06261546164751053,
                0.2285880148410797, -1.1502273153891808e-17,
                -0.04313027858734131, 0.23900306224822998,
                -7.922903824697247e-18, -0.02198762446641922,
                0.24541661143302917, -4.039061306140799e-18,
                -6.901181499010017e-18, 0.24758221209049225,
                -1.267726484488185e-33, 1.463961618889212e-17,
                -0.24758221209049225, -1.463961618889212e-17,
                -0.015547598712146282, -0.24541661143302917,
                0.015547598712146282, -0.030497711151838303,
                -0.23900306224822998, 0.030497711151838303,
                -0.04427581652998924, -0.2285880148410797, 0.04427581652998924,
                -0.05635242164134979, -0.2145717293024063, 0.05635242164134979,
                -0.06626343727111816, -0.1974928230047226, 0.06626343727111816,
                -0.07362798601388931, -0.17800763249397278, 0.07362798601388931,
                -0.07816305756568909, -0.1568649858236313, 0.07816305756568909,
                -0.07969436049461365, -0.13487736880779266, 0.07969436049461365,
                -0.07969436049461365, 0.13487736880779266, 0.07969436049461365,
                -0.07816305756568909, 0.1568649858236313, 0.07816305756568909,
                -0.07362798601388931, 0.17800763249397278, 0.07362798601388931,
                -0.06626343727111816, 0.1974928230047226, 0.06626343727111816,
                -0.05635242164134979, 0.2145717293024063, 0.05635242164134979,
                -0.04427581652998924, 0.2285880148410797, 0.04427581652998924,
                -0.030497711151838303, 0.23900306224822998,
                0.030497711151838303, -0.015547598712146282,
                0.24541661143302917, 0.015547598712146282,
                -4.8798722008274754e-18, 0.24758221209049225,
                4.8798722008274754e-18, 5.07090593795274e-33,
                -0.24758221209049225, -2.0703544910620357e-17,
                -5.385414799127528e-18, -0.24541661143302917,
                0.02198762446641922, -1.0563871490536126e-17,
                -0.23900306224822998, 0.04313027858734131,
                -1.5336363653735336e-17, -0.2285880148410797,
                0.06261546164751053, -1.9519488803309902e-17,
                -0.2145717293024063, 0.07969436049461365,
                -2.295249017747443e-17, -0.1974928230047226,
                0.09371065348386765, -2.5503440740332837e-17,
                -0.17800763249397278, 0.10412570089101791,
                -2.707430966313024e-17, -0.1568649858236313, 0.1105392575263977,
                -2.7604725996040068e-17, -0.13487736880779266,
                0.11270484328269958, -2.7604725996040068e-17,
                0.13487736880779266, 0.11270484328269958,
                -2.707430966313024e-17, 0.1568649858236313, 0.1105392575263977,
                -2.5503440740332837e-17, 0.17800763249397278,
                0.10412570089101791, -2.295249017747443e-17, 0.1974928230047226,
                0.09371065348386765, -1.9519488803309902e-17,
                0.2145717293024063, 0.07969436049461365,
                -1.5336363653735336e-17, 0.2285880148410797,
                0.06261546164751053, -1.0563871490536126e-17,
                0.23900306224822998, 0.04313027858734131,
                -5.385414799127528e-18, 0.24541661143302917,
                0.02198762446641922, -1.690301918093916e-33,
                0.24758221209049225, 6.901181499010017e-18, 0,
                -0.19182758033275604, -3.3736902081387606e-17, 0,
                -0.18829868733882904, 0.0358293391764164, 0,
                -0.17784766852855682, 0.07028178125619888, 0,
                -0.1608761101961136, 0.102033331990242, 0, -0.13803623616695404,
                0.12986379861831665, 0, -0.1102057620882988, 0.1527036726474762,
                0, -0.07845420390367508, 0.16967523097991943, 0,
                -0.04400176554918289, 0.18012626469135284, 0,
                -0.008172431029379368, 0.18365514278411865, 0,
                0.17548270523548126, 0.18365514278411865, 0,
                0.21131204068660736, 0.18012626469135284, 0,
                0.24576447904109955, 0.16967523097991943, 0,
                0.27751603722572327, 0.1527036726474762, 0, 0.3053465187549591,
                0.12986379861831665, 0, 0.32818639278411865, 0.102033331990242,
                0, 0.3451579511165619, 0.07028178125619888, 0,
                0.3556089699268341, 0.0358293391764164, 0, 0.3591378629207611,
                1.1245633751402331e-17, -2.3855592735370024e-17,
                -0.19182758033275604, -2.3855592735370024e-17,
                0.025335170328617096, -0.18829868733882904,
                0.025335170328617096, 0.04969672113656998, -0.17784766852855682,
                0.04969672113656998, 0.07214845716953278, -0.1608761101961136,
                0.07214845716953278, 0.09182757139205933, -0.13803623616695404,
                0.09182757139205933, 0.10797780007123947, -0.1102057620882988,
                0.10797780007123947, 0.11997850239276886, -0.07845420390367508,
                0.11997850239276886, 0.1273684948682785, -0.04400176554918289,
                0.1273684948682785, 0.12986379861831665, -0.008172431029379368,
                0.12986379861831665, 0.12986379861831665, 0.17548270523548126,
                0.12986379861831665, 0.1273684948682785, 0.21131204068660736,
                0.1273684948682785, 0.11997850239276886, 0.24576447904109955,
                0.11997850239276886, 0.10797780007123947, 0.27751603722572327,
                0.10797780007123947, 0.09182757139205933, 0.3053465187549591,
                0.09182757139205933, 0.07214845716953278, 0.32818639278411865,
                0.07214845716953278, 0.04969672113656998, 0.3451579511165619,
                0.04969672113656998, 0.025335170328617096, 0.3556089699268341,
                0.025335170328617096, 7.951864245123341e-18, 0.3591378629207611,
                7.951864245123341e-18, -3.3736902081387606e-17,
                -0.19182758033275604, -2.0657895275641024e-33,
                0.0358293391764164, -0.18829868733882904, 2.193914388266991e-18,
                0.07028178125619888, -0.17784766852855682,
                4.3035179790092086e-18, 0.102033331990242, -0.1608761101961136,
                6.24773942077579e-18, 0.12986379861831665, -0.13803623616695404,
                7.951864245123341e-18, 0.1527036726474762, -0.1102057620882988,
                9.350403322185122e-18, 0.16967523097991943,
                -0.07845420390367508, 1.0389611005250804e-17,
                0.18012626469135284, -0.04400176554918289,
                1.1029552668707554e-17, 0.18365514278411865,
                -0.008172431029379368, 1.1245633751402331e-17,
                0.18365514278411865, 0.17548270523548126,
                1.1245633751402331e-17, 0.18012626469135284,
                0.21131204068660736, 1.1029552668707554e-17,
                0.16967523097991943, 0.24576447904109955,
                1.0389611005250804e-17, 0.1527036726474762, 0.27751603722572327,
                9.350403322185122e-18, 0.12986379861831665, 0.3053465187549591,
                7.951864245123341e-18, 0.102033331990242, 0.32818639278411865,
                6.24773942077579e-18, 0.07028178125619888, 0.3451579511165619,
                4.3035179790092086e-18, 0.0358293391764164, 0.3556089699268341,
                2.193914388266991e-18, 1.1245633751402331e-17,
                0.3591378629207611, 6.88596463270286e-34,
                -2.3855592735370024e-17, -0.19182758033275604,
                2.3855592735370024e-17, 0.025335170328617096,
                -0.18829868733882904, -0.025335170328617096,
                0.04969672113656998, -0.17784766852855682, -0.04969672113656998,
                0.07214845716953278, -0.1608761101961136, -0.07214845716953278,
                0.09182757139205933, -0.13803623616695404, -0.09182757139205933,
                0.10797780007123947, -0.1102057620882988, -0.10797780007123947,
                0.11997850239276886, -0.07845420390367508, -0.11997850239276886,
                0.1273684948682785, -0.04400176554918289, -0.1273684948682785,
                0.12986379861831665, -0.008172431029379368,
                -0.12986379861831665, 0.12986379861831665, 0.17548270523548126,
                -0.12986379861831665, 0.1273684948682785, 0.21131204068660736,
                -0.1273684948682785, 0.11997850239276886, 0.24576447904109955,
                -0.11997850239276886, 0.10797780007123947, 0.27751603722572327,
                -0.10797780007123947, 0.09182757139205933, 0.3053465187549591,
                -0.09182757139205933, 0.07214845716953278, 0.32818639278411865,
                -0.07214845716953278, 0.04969672113656998, 0.3451579511165619,
                -0.04969672113656998, 0.025335170328617096, 0.3556089699268341,
                -0.025335170328617096, 7.951864245123341e-18,
                0.3591378629207611, -7.951864245123341e-18,
                -4.131579055128205e-33, -0.19182758033275604,
                3.3736902081387606e-17, 4.387828776533982e-18,
                -0.18829868733882904, -0.0358293391764164,
                8.607035958018417e-18, -0.17784766852855682,
                -0.07028178125619888, 1.249547884155158e-17,
                -0.1608761101961136, -0.102033331990242, 1.5903728490246683e-17,
                -0.13803623616695404, -0.12986379861831665,
                1.8700806644370244e-17, -0.1102057620882988,
                -0.1527036726474762, 2.077922201050161e-17,
                -0.07845420390367508, -0.16967523097991943,
                2.2059105337415108e-17, -0.04400176554918289,
                -0.18012626469135284, 2.2491267502804662e-17,
                -0.008172431029379368, -0.18365514278411865,
                2.2491267502804662e-17, 0.17548270523548126,
                -0.18365514278411865, 2.2059105337415108e-17,
                0.21131204068660736, -0.18012626469135284,
                2.077922201050161e-17, 0.24576447904109955,
                -0.16967523097991943, 1.8700806644370244e-17,
                0.27751603722572327, -0.1527036726474762,
                1.5903728490246683e-17, 0.3053465187549591,
                -0.12986379861831665, 1.249547884155158e-17,
                0.32818639278411865, -0.102033331990242, 8.607035958018417e-18,
                0.3451579511165619, -0.07028178125619888, 4.387828776533982e-18,
                0.3556089699268341, -0.0358293391764164, 1.377192926540572e-33,
                0.3591378629207611, -1.1245633751402331e-17,
                2.3855592735370024e-17, -0.19182758033275604,
                2.3855592735370024e-17, -0.025335170328617096,
                -0.18829868733882904, -0.025335170328617096,
                -0.04969672113656998, -0.17784766852855682,
                -0.04969672113656998, -0.07214845716953278, -0.1608761101961136,
                -0.07214845716953278, -0.09182757139205933,
                -0.13803623616695404, -0.09182757139205933,
                -0.10797780007123947, -0.1102057620882988, -0.10797780007123947,
                -0.11997850239276886, -0.07845420390367508,
                -0.11997850239276886, -0.1273684948682785, -0.04400176554918289,
                -0.1273684948682785, -0.12986379861831665,
                -0.008172431029379368, -0.12986379861831665,
                -0.12986379861831665, 0.17548270523548126, -0.12986379861831665,
                -0.1273684948682785, 0.21131204068660736, -0.1273684948682785,
                -0.11997850239276886, 0.24576447904109955, -0.11997850239276886,
                -0.10797780007123947, 0.27751603722572327, -0.10797780007123947,
                -0.09182757139205933, 0.3053465187549591, -0.09182757139205933,
                -0.07214845716953278, 0.32818639278411865, -0.07214845716953278,
                -0.04969672113656998, 0.3451579511165619, -0.04969672113656998,
                -0.025335170328617096, 0.3556089699268341,
                -0.025335170328617096, -7.951864245123341e-18,
                0.3591378629207611, -7.951864245123341e-18,
                3.3736902081387606e-17, -0.19182758033275604,
                6.197368582692307e-33, -0.0358293391764164,
                -0.18829868733882904, -6.58174295800582e-18,
                -0.07028178125619888, -0.17784766852855682,
                -1.2910553109847013e-17, -0.102033331990242,
                -0.1608761101961136, -1.8743217848737063e-17,
                -0.12986379861831665, -0.13803623616695404,
                -2.3855592735370024e-17, -0.1527036726474762,
                -0.1102057620882988, -2.8051209966555366e-17,
                -0.16967523097991943, -0.07845420390367508,
                -3.1168833842933026e-17, -0.18012626469135284,
                -0.04400176554918289, -3.308865717894205e-17,
                -0.18365514278411865, -0.008172431029379368,
                -3.3736902081387606e-17, -0.18365514278411865,
                0.17548270523548126, -3.3736902081387606e-17,
                -0.18012626469135284, 0.21131204068660736,
                -3.308865717894205e-17, -0.16967523097991943,
                0.24576447904109955, -3.1168833842933026e-17,
                -0.1527036726474762, 0.27751603722572327,
                -2.8051209966555366e-17, -0.12986379861831665,
                0.3053465187549591, -2.3855592735370024e-17, -0.102033331990242,
                0.32818639278411865, -1.8743217848737063e-17,
                -0.07028178125619888, 0.3451579511165619,
                -1.2910553109847013e-17, -0.0358293391764164,
                0.3556089699268341, -6.58174295800582e-18,
                -1.1245633751402331e-17, 0.3591378629207611,
                -2.0657895275641024e-33, 2.3855592735370024e-17,
                -0.19182758033275604, -2.3855592735370024e-17,
                -0.025335170328617096, -0.18829868733882904,
                0.025335170328617096, -0.04969672113656998,
                -0.17784766852855682, 0.04969672113656998, -0.07214845716953278,
                -0.1608761101961136, 0.07214845716953278, -0.09182757139205933,
                -0.13803623616695404, 0.09182757139205933, -0.10797780007123947,
